{"learner":{"attributes":{"scikit_learn":"{\"_estimator_type\": \"regressor\"}"},"feature_names":[],"feature_types":[],"gradient_booster":{"model":{"cats":{"enc":[],"feature_segments":[],"sorted_idx":[]},"gbtree_model_param":{"num_parallel_tree":"1","num_trees":"150"},"iteration_indptr":[0,1,2,3,4,5,6,7,8,9,10,11,12,13,14,15,16,17,18,19,20,21,22,23,24,25,26,27,28,29,30,31,32,33,34,35,36,37,38,39,40,41,42,43,44,45,46,47,48,49,50,51,52,53,54,55,56,57,58,59,60,61,62,63,64,65,66,67,68,69,70,71,72,73,74,75,76,77,78,79,80,81,82,83,84,85,86,87,88,89,90,91,92,93,94,95,96,97,98,99,100,101,102,103,104,105,106,107,108,109,110,111,112,113,114,115,116,117,118,119,120,121,122,123,124,125,126,127,128,129,130,131,132,133,134,135,136,137,138,139,140,141,142,143,144,145,146,147,148,149,150],"tree_info":[0,0,0,0,0,0,0,0,0,0,0,0,0,0,0,0,0,0,0,0,0,0,0,0,0,0,0,0,0,0,0,0,0,0,0,0,0,0,0,0,0,0,0,0,0,0,0,0,0,0,0,0,0,0,0,0,0,0,0,0,0,0,0,0,0,0,0,0,0,0,0,0,0,0,0,0,0,0,0,0,0,0,0,0,0,0,0,0,0,0,0,0,0,0,0,0,0,0,0,0,0,0,0,0,0,0,0,0,0,0,0,0,0,0,0,0,0,0,0,0,0,0,0,0,0,0,0,0,0,0,0,0,0,0,0,0,0,0,0,0,0,0,0,0,0,0,0,0,0,0],"trees":[{"base_weights":[-1.1094448E-6,-1.2433688E1,1.3092821E1,-1.592563E1,-2.5177667E0,5.550598E0,1.7209076E1,-1.8998217E1,-1.3185321E1,-5.2834954E0,-7.9263014E-1,3.6175957E0,9.049649E0,8.151184E-1,1.1787581E0,-1.269395E0,-1.0684756E0,-7.440035E-1,-8.846477E-1,-2.1810156E-1,-3.834559E-1,8.471211E-3,-1.8403168E-1,1.08949624E-1,2.6860106E-1,4.1210368E-1,6.678401E-1],"categories":[],"categories_nodes":[],"categories_segments":[],"categories_sizes":[],"default_left":[0,0,0,0,0,0,0,0,0,0,0,0,0,0,0,0,0,0,0,0,0,0,0,0,0,0,0],"id":0,"left_children":[1,3,5,7,9,11,13,15,17,19,21,23,25,-1,-1,-1,-1,-1,-1,-1,-1,-1,-1,-1,-1,-1,-1],"loss_changes":[1.3869883E5,1.5091383E4,1.27884375E4,2.4691094E3,5.4450696E2,9.6828613E2,2.0997422E3,8.605469E0,3.016211E1,5.7094116E1,1.5336299E2,1.4201538E2,1.5959033E2,0E0,0E0,0E0,0E0,0E0,0E0,0E0,0E0,0E0,0E0,0E0,0E0,0E0,0E0],"parents":[2147483647,0,0,1,1,2,2,3,3,4,4,5,5,6,6,7,7,8,8,9,9,10,10,11,11,12,12],"right_children":[2,4,6,8,10,12,14,16,18,20,22,24,26,-1,-1,-1,-1,-1,-1,-1,-1,-1,-1,-1,-1,-1,-1],"split_conditions":[2.988485E-2,-4.79117E-1,7.1277344E-1,-1.0134357E0,-2.9123935E-1,4.30957E-1,1.100521E0,-1.4504844E0,9.6898586E-1,-4.124937E-1,-2.7411168E-2,1.5980025E-1,-5.1504654E-1,8.151184E-1,1.1787581E0,-1.269395E0,-1.0684756E0,-7.440035E-1,-8.846477E-1,-2.1810156E-1,-3.834559E-1,8.471211E-3,-1.8403168E-1,1.08949624E-1,2.6860106E-1,4.1210368E-1,6.678401E-1],"split_indices":[1,1,1,1,1,1,1,1,0,1,1,1,0,0,0,0,0,0,0,0,0,0,0,0,0,0,0],"split_type":[0,0,0,0,0,0,0,0,0,0,0,0,0,0,0,0,0,0,0,0,0,0,0,0,0,0,0],"sum_hessian":[8.5E2,4.36E2,4.14E2,3.22E2,1.14E2,1.47E2,2.67E2,1.49E2,1.73E2,4.3E1,7.1E1,9.6E1,5.1E1,1.1E2,1.57E2,4.7E1,1.02E2,1.21E2,5.2E1,1.9E1,2.4E1,5.1E1,2E1,3.2E1,6.4E1,2.7E1,2.4E1],"tree_param":{"num_deleted":"0","num_feature":"3","num_nodes":"27","size_leaf_vector":"1"}},{"base_weights":[-1.5193769E-3,-1.1698523E1,1.2315569E1,-1.4982373E1,-2.3734584E0,5.227411E0,1.6183971E1,-1.787391E1,-1.2403563E1,-4.980157E0,-7.475113E-1,3.4044333E0,8.527438E0,7.66652E-1,1.1084803E0,-1.1948181E0,-1.0049895E0,-6.997292E-1,-8.325704E-1,-2.0566976E-1,-3.6136875E-1,7.972641E-3,-1.7351553E-1,1.0261084E-1,2.5273296E-1,3.8826042E-1,6.2937254E-1],"categories":[],"categories_nodes":[],"categories_segments":[],"categories_sizes":[],"default_left":[0,0,0,0,0,0,0,0,0,0,0,0,0,0,0,0,0,0,0,0,0,0,0,0,0,0,0],"id":1,"left_children":[1,3,5,7,9,11,13,15,17,19,21,23,25,-1,-1,-1,-1,-1,-1,-1,-1,-1,-1,-1,-1,-1,-1],"loss_changes":[1.2275022E5,1.3346305E4,1.1294633E4,2.1868281E3,4.8368793E2,8.6131836E2,1.8551797E3,1.0375E1,2.8146484E1,5.05708E1,1.3631436E2,1.2554944E2,1.4193848E2,0E0,0E0,0E0,0E0,0E0,0E0,0E0,0E0,0E0,0E0,0E0,0E0,0E0,0E0],"parents":[2147483647,0,0,1,1,2,2,3,3,4,4,5,5,6,6,7,7,8,8,9,9,10,10,11,11,12,12],"right_children":[2,4,6,8,10,12,14,16,18,20,22,24,26,-1,-1,-1,-1,-1,-1,-1,-1,-1,-1,-1,-1,-1,-1],"split_conditions":[2.988485E-2,-4.79117E-1,7.1277344E-1,-1.0134357E0,-2.9123935E-1,4.30957E-1,1.100521E0,-1.4504844E0,9.6898586E-1,-4.124937E-1,-2.7411168E-2,1.5980025E-1,-5.1504654E-1,7.66652E-1,1.1084803E0,-1.1948181E0,-1.0049895E0,-6.997292E-1,-8.325704E-1,-2.0566976E-1,-3.6136875E-1,7.972641E-3,-1.7351553E-1,1.0261084E-1,2.5273296E-1,3.8826042E-1,6.2937254E-1],"split_indices":[1,1,1,1,1,1,1,1,0,1,1,1,0,0,0,0,0,0,0,0,0,0,0,0,0,0,0],"split_type":[0,0,0,0,0,0,0,0,0,0,0,0,0,0,0,0,0,0,0,0,0,0,0,0,0,0,0],"sum_hessian":[8.5E2,4.36E2,4.14E2,3.22E2,1.14E2,1.47E2,2.67E2,1.49E2,1.73E2,4.3E1,7.1E1,9.6E1,5.1E1,1.1E2,1.57E2,4.7E1,1.02E2,1.21E2,5.2E1,1.9E1,2.4E1,5.1E1,2E1,3.2E1,6.4E1,2.7E1,2.4E1],"tree_param":{"num_deleted":"0","num_feature":"3","num_nodes":"27","size_leaf_vector":"1"}},{"base_weights":[-2.8572553E-3,-1.1006827E1,1.1584463E1,-1.4094986E1,-2.237421E0,4.9230437E0,1.5219932E1,-1.6816143E1,-1.1668155E1,-4.694234E0,-7.0496E-1,3.2038314E0,8.035362E0,7.210673E-1,1.0423925E0,-1.1246227E0,-9.4527566E-1,-6.580895E-1,-7.835587E-1,-1.9394661E-1,-3.4055382E-1,7.503477E-3,-1.6360037E-1,2.6909932E-1,1.3356538E-1,3.6579683E-1,5.9312075E-1],"categories":[],"categories_nodes":[],"categories_segments":[],"categories_sizes":[],"default_left":[0,0,0,0,0,0,0,0,0,0,0,0,0,0,0,0,0,0,0,0,0,0,0,0,0,0,0],"id":2,"left_children":[1,3,5,7,9,11,13,15,17,19,21,23,25,-1,-1,-1,-1,-1,-1,-1,-1,-1,-1,-1,-1,-1,-1],"loss_changes":[1.0863557E5,1.1802992E4,9.975285E3,1.9368125E3,4.296624E2,7.6616504E2,1.6391016E3,1.16328125E1,2.6205078E1,4.479236E1,1.2116116E2,1.1152222E2,1.2623877E2,0E0,0E0,0E0,0E0,0E0,0E0,0E0,0E0,0E0,0E0,0E0,0E0,0E0,0E0],"parents":[2147483647,0,0,1,1,2,2,3,3,4,4,5,5,6,6,7,7,8,8,9,9,10,10,11,11,12,12],"right_children":[2,4,6,8,10,12,14,16,18,20,22,24,26,-1,-1,-1,-1,-1,-1,-1,-1,-1,-1,-1,-1,-1,-1],"split_conditions":[2.988485E-2,-4.79117E-1,7.1277344E-1,-1.0134357E0,-2.9123935E-1,4.30957E-1,1.100521E0,-1.4504844E0,9.6898586E-1,-4.124937E-1,-2.7411168E-2,-5.1504654E-1,-5.1504654E-1,7.210673E-1,1.0423925E0,-1.1246227E0,-9.4527566E-1,-6.580895E-1,-7.835587E-1,-1.9394661E-1,-3.4055382E-1,7.503477E-3,-1.6360037E-1,2.6909932E-1,1.3356538E-1,3.6579683E-1,5.9312075E-1],"split_indices":[1,1,1,1,1,1,1,1,0,1,1,0,0,0,0,0,0,0,0,0,0,0,0,0,0,0,0],"split_type":[0,0,0,0,0,0,0,0,0,0,0,0,0,0,0,0,0,0,0,0,0,0,0,0,0,0,0],"sum_hessian":[8.5E2,4.36E2,4.14E2,3.22E2,1.14E2,1.47E2,2.67E2,1.49E2,1.73E2,4.3E1,7.1E1,9.6E1,5.1E1,1.1E2,1.57E2,4.7E1,1.02E2,1.21E2,5.2E1,1.9E1,2.4E1,5.1E1,2E1,4E1,5.6E1,2.7E1,2.4E1],"tree_param":{"num_deleted":"0","num_feature":"3","num_nodes":"27","size_leaf_vector":"1"}},{"base_weights":[-3.9512967E-3,-1.0356034E1,1.0896926E1,-1.3260159E1,-2.109181E0,4.636862E0,1.4313316E1,-1.5820973E1,-1.0976352E1,-4.424728E0,-6.6483027E-1,3.0157533E0,7.5716825E0,7.0049953E-1,9.985263E-1,-1.0585511E0,-8.8910973E-1,-6.1892784E-1,-7.374323E-1,-1.8289164E-1,-3.2093796E-1,7.0619243E-3,-1.5425175E-1,8.886972E-2,2.2490743E-1,3.4463295E-1,5.5895704E-1],"categories":[],"categories_nodes":[],"categories_segments":[],"categories_sizes":[],"default_left":[0,0,0,0,0,0,0,0,0,0,0,0,0,0,0,0,0,0,0,0,0,0,0,0,0,0,0],"id":3,"left_children":[1,3,5,7,9,11,13,15,17,19,21,23,25,-1,-1,-1,-1,-1,-1,-1,-1,-1,-1,-1,-1,-1,-1],"loss_changes":[9.614547E4,1.0438129E4,8.80916E3,1.7153789E3,3.8167148E2,6.8130005E2,1.4523203E3,1.2472656E1,2.4341797E1,3.9674133E1,1.0769243E2,1.0351477E2,1.1227515E2,0E0,0E0,0E0,0E0,0E0,0E0,0E0,0E0,0E0,0E0,0E0,0E0,0E0,0E0],"parents":[2147483647,0,0,1,1,2,2,3,3,4,4,5,5,6,6,7,7,8,8,9,9,10,10,11,11,12,12],"right_children":[2,4,6,8,10,12,14,16,18,20,22,24,26,-1,-1,-1,-1,-1,-1,-1,-1,-1,-1,-1,-1,-1,-1],"split_conditions":[2.988485E-2,-4.79117E-1,7.1277344E-1,-1.0134357E0,-2.9123935E-1,4.30957E-1,1.2271051E0,-1.4504844E0,9.6898586E-1,-4.124937E-1,-2.7411168E-2,1.5980025E-1,-5.1504654E-1,7.0049953E-1,9.985263E-1,-1.0585511E0,-8.8910973E-1,-6.1892784E-1,-7.374323E-1,-1.8289164E-1,-3.2093796E-1,7.0619243E-3,-1.5425175E-1,8.886972E-2,2.2490743E-1,3.4463295E-1,5.5895704E-1],"split_indices":[1,1,1,1,1,1,1,1,0,1,1,1,0,0,0,0,0,0,0,0,0,0,0,0,0,0,0],"split_type":[0,0,0,0,0,0,0,0,0,0,0,0,0,0,0,0,0,0,0,0,0,0,0,0,0,0,0],"sum_hessian":[8.5E2,4.36E2,4.14E2,3.22E2,1.14E2,1.47E2,2.67E2,1.49E2,1.73E2,4.3E1,7.1E1,9.6E1,5.1E1,1.28E2,1.39E2,4.7E1,1.02E2,1.21E2,5.2E1,1.9E1,2.4E1,5.1E1,2E1,3.2E1,6.4E1,2.7E1,2.4E1],"tree_param":{"num_deleted":"0","num_feature":"3","num_nodes":"27","size_leaf_vector":"1"}},{"base_weights":[-4.934914E-3,-9.743723E0,1.0250137E1,-1.2474778E1,-1.9882908E0,4.366876E0,1.3460856E1,-1.4884699E1,-1.0325566E1,-4.170695E0,-6.269843E-1,2.8380427E0,7.1347594E0,6.365418E-1,9.227495E-1,-9.963612E-1,-8.3628106E-1,-5.8209664E-1,-6.940212E-1,-1.7246681E-1,-3.024519E-1,6.6464115E-3,-1.4543739E-1,2.4018185E-1,1.1701673E-1,3.246936E-1,5.267611E-1],"categories":[],"categories_nodes":[],"categories_segments":[],"categories_sizes":[],"default_left":[0,0,0,0,0,0,0,0,0,0,0,0,0,0,0,0,0,0,0,0,0,0,0,0,0,0,0],"id":4,"left_children":[1,3,5,7,9,11,13,15,17,19,21,23,25,-1,-1,-1,-1,-1,-1,-1,-1,-1,-1,-1,-1,-1,-1],"loss_changes":[8.5090914E4,9.231082E3,7.7803633E3,1.5192578E3,3.3904095E2,6.0603296E2,1.3029805E3,1.29765625E1,2.2564453E1,3.514044E1,9.57211E1,9.251367E1,9.985596E1,0E0,0E0,0E0,0E0,0E0,0E0,0E0,0E0,0E0,0E0,0E0,0E0,0E0,0E0],"parents":[2147483647,0,0,1,1,2,2,3,3,4,4,5,5,6,6,7,7,8,8,9,9,10,10,11,11,12,12],"right_children":[2,4,6,8,10,12,14,16,18,20,22,24,26,-1,-1,-1,-1,-1,-1,-1,-1,-1,-1,-1,-1,-1,-1],"split_conditions":[2.988485E-2,-4.79117E-1,7.1277344E-1,-1.0134357E0,-2.9123935E-1,4.30957E-1,1.100521E0,-1.4504844E0,9.6898586E-1,-4.124937E-1,-2.7411168E-2,-5.1504654E-1,-5.1504654E-1,6.365418E-1,9.227495E-1,-9.963612E-1,-8.3628106E-1,-5.8209664E-1,-6.940212E-1,-1.7246681E-1,-3.024519E-1,6.6464115E-3,-1.4543739E-1,2.4018185E-1,1.1701673E-1,3.246936E-1,5.267611E-1],"split_indices":[1,1,1,1,1,1,1,1,0,1,1,0,0,0,0,0,0,0,0,0,0,0,0,0,0,0,0],"split_type":[0,0,0,0,0,0,0,0,0,0,0,0,0,0,0,0,0,0,0,0,0,0,0,0,0,0,0],"sum_hessian":[8.5E2,4.36E2,4.14E2,3.22E2,1.14E2,1.47E2,2.67E2,1.49E2,1.73E2,4.3E1,7.1E1,9.6E1,5.1E1,1.1E2,1.57E2,4.7E1,1.02E2,1.21E2,5.2E1,1.9E1,2.4E1,5.1E1,2E1,4E1,5.6E1,2.7E1,2.4E1],"tree_param":{"num_deleted":"0","num_feature":"3","num_nodes":"27","size_leaf_vector":"1"}},{"base_weights":[-5.7603195E-3,-9.167618E0,9.641799E0,-1.1735916E1,-1.8743292E0,4.113031E0,1.2659023E1,-1.3778214E1,-9.488785E0,-3.931247E0,-5.9129155E-1,2.6714435E0,6.723049E0,6.185027E-1,8.840732E-1,-9.3782496E-1,-7.7535087E-1,-6.5394944E-1,-5.32735E-1,-1.6263622E-1,-2.850307E-1,6.255367E-3,-1.371266E-1,7.6890856E-2,2.0016006E-1,3.0590788E-1,4.9641976E-1],"categories":[],"categories_nodes":[],"categories_segments":[],"categories_sizes":[],"default_left":[0,0,0,0,0,0,0,0,0,0,0,0,0,0,0,0,0,0,0,0,0,0,0,0,0,0,0],"id":5,"left_children":[1,3,5,7,9,11,13,15,17,19,21,23,25,-1,-1,-1,-1,-1,-1,-1,-1,-1,-1,-1,-1,-1,-1],"loss_changes":[7.530791E4,8.1636055E3,6.8707656E3,1.3516055E3,3.011723E2,5.3890015E2,1.1556367E3,6.269922E1,3.8270508E1,3.1124512E1,8.508043E1,8.532257E1,8.88103E1,0E0,0E0,0E0,0E0,0E0,0E0,0E0,0E0,0E0,0E0,0E0,0E0,0E0,0E0],"parents":[2147483647,0,0,1,1,2,2,3,3,4,4,5,5,6,6,7,7,8,8,9,9,10,10,11,11,12,12],"right_children":[2,4,6,8,10,12,14,16,18,20,22,24,26,-1,-1,-1,-1,-1,-1,-1,-1,-1,-1,-1,-1,-1,-1],"split_conditions":[2.988485E-2,-4.79117E-1,7.1277344E-1,-1.0067734E0,-2.9123935E-1,4.30957E-1,1.2271051E0,-1.4504844E0,-5.1504654E-1,-4.124937E-1,-2.7411168E-2,1.5980025E-1,-5.1504654E-1,6.185027E-1,8.840732E-1,-9.3782496E-1,-7.7535087E-1,-6.5394944E-1,-5.32735E-1,-1.6263622E-1,-2.850307E-1,6.255367E-3,-1.371266E-1,7.6890856E-2,2.0016006E-1,3.0590788E-1,4.9641976E-1],"split_indices":[1,1,1,1,1,1,1,1,0,1,1,1,0,0,0,0,0,0,0,0,0,0,0,0,0,0,0],"split_type":[0,0,0,0,0,0,0,0,0,0,0,0,0,0,0,0,0,0,0,0,0,0,0,0,0,0,0],"sum_hessian":[8.5E2,4.36E2,4.14E2,3.22E2,1.14E2,1.47E2,2.67E2,1.66E2,1.56E2,4.3E1,7.1E1,9.6E1,5.1E1,1.28E2,1.39E2,4.7E1,1.19E2,4.2E1,1.14E2,1.9E1,2.4E1,5.1E1,2E1,3.2E1,6.4E1,2.7E1,2.4E1],"tree_param":{"num_deleted":"0","num_feature":"3","num_nodes":"27","size_leaf_vector":"1"}},{"base_weights":[-6.4679147E-3,-9.751396E0,8.027373E0,-1.1145775E1,-3.4277282E0,2.0784478E0,1.1488854E1,-1.3182745E1,-9.237995E0,-4.1977663E0,-7.525454E-2,2.9135123E-1,3.761872E0,8.972429E0,8.168418E-1,-8.827278E-1,-7.4052197E-1,-5.191737E-1,-6.193326E-1,-3.6826527E-1,-2.2233279E-1,-4.676258E-2,9.092424E-2,3.1442934E-1,1.8614428E-1,4.7275925E-1,5.841642E-1],"categories":[],"categories_nodes":[],"categories_segments":[],"categories_sizes":[],"default_left":[0,0,0,0,0,0,0,0,0,0,0,0,0,0,0,0,0,0,0,0,0,0,0,0,0,0,0],"id":6,"left_children":[1,3,5,7,9,11,13,15,17,19,-1,21,23,25,-1,-1,-1,-1,-1,-1,-1,-1,-1,-1,-1,-1,-1],"loss_changes":[6.670239E4,3.3565664E3,9.592631E3,1.1023359E3,1.1356531E2,5.193644E2,1.4554609E3,1.12890625E1,1.5989258E1,2.6911072E1,0E0,1.1258438E2,7.052588E1,3.848047E1,0E0,0E0,0E0,0E0,0E0,0E0,0E0,0E0,0E0,0E0,0E0,0E0,0E0],"parents":[2147483647,0,0,1,1,2,2,3,3,4,4,5,5,6,6,7,7,8,8,9,9,11,11,12,12,13,13],"right_children":[2,4,6,8,10,12,14,16,18,20,-1,22,24,26,-1,-1,-1,-1,-1,-1,-1,-1,-1,-1,-1,-1,-1],"split_conditions":[-2.1195765E-1,-5.044339E-1,5.262283E-1,-1.0134357E0,-2.9123935E-1,1.5980025E-1,1.100521E0,-1.4504844E0,9.6898586E-1,-4.79117E-1,-7.525454E-2,4.743084E-1,-1.009724E0,-2.0369072E-2,8.168418E-1,-8.827278E-1,-7.4052197E-1,-5.191737E-1,-6.193326E-1,-3.6826527E-1,-2.2233279E-1,-4.676258E-2,9.092424E-2,3.1442934E-1,1.8614428E-1,4.7275925E-1,5.841642E-1],"split_indices":[1,1,1,1,1,1,1,1,0,1,0,0,0,0,0,0,0,0,0,0,0,0,0,0,0,0,0],"split_type":[0,0,0,0,0,0,0,0,0,0,0,0,0,0,0,0,0,0,0,0,0,0,0,0,0,0,0],"sum_hessian":[8.5E2,3.84E2,4.66E2,3.14E2,7E1,1.72E2,2.94E2,1.49E2,1.65E2,5.1E1,1.9E1,8.4E1,8.8E1,1.37E2,1.57E2,4.7E1,1.02E2,1.13E2,5.2E1,8E0,4.3E1,4.5E1,3.9E1,2.5E1,6.3E1,6.1E1,7.6E1],"tree_param":{"num_deleted":"0","num_feature":"3","num_nodes":"27","size_leaf_vector":"1"}},{"base_weights":[-7.265224E-3,-9.175215E0,7.55091E0,-1.0485795E1,-3.2314427E0,1.9568896E0,1.0805875E1,-1.2402601E1,-8.690574E0,-3.9572587E0,-7.0964925E-2,2.7439108E-1,3.5417829E0,8.441743E0,1.2802359E1,-8.308675E-1,-6.96522E-1,-4.882965E-1,-5.8287376E-1,-3.4862444E-1,-2.0929605E-1,-4.4017714E-2,8.5605234E-2,1.7544357E-1,3.003715E-1,3.940251E-1,5.303147E-1,5.899948E-1,7.854358E-1],"categories":[],"categories_nodes":[],"categories_segments":[],"categories_sizes":[],"default_left":[0,0,0,0,0,0,0,0,0,0,0,0,0,0,0,0,0,0,0,0,0,0,0,0,0,0,0,0,0],"id":7,"left_children":[1,3,5,7,9,11,13,15,17,19,-1,21,23,25,27,-1,-1,-1,-1,-1,-1,-1,-1,-1,-1,-1,-1,-1,-1],"loss_changes":[5.9037605E4,2.9651816E3,8.482148E3,9.7616016E2,1.00894775E2,4.6034656E2,1.2843125E3,1.1347656E1,1.4821289E1,2.4925476E1,0E0,9.978308E1,6.587085E1,4.4618164E1,6.4941406E0,0E0,0E0,0E0,0E0,0E0,0E0,0E0,0E0,0E0,0E0,0E0,0E0,0E0,0E0],"parents":[2147483647,0,0,1,1,2,2,3,3,4,4,5,5,6,6,7,7,8,8,9,9,11,11,12,12,13,13,14,14],"right_children":[2,4,6,8,10,12,14,16,18,20,-1,22,24,26,28,-1,-1,-1,-1,-1,-1,-1,-1,-1,-1,-1,-1,-1,-1],"split_conditions":[-2.1195765E-1,-5.044339E-1,5.262283E-1,-1.0134357E0,-2.9123935E-1,1.5980025E-1,1.100521E0,-1.4504844E0,9.6898586E-1,-4.79117E-1,-7.0964925E-2,4.743084E-1,4.30957E-1,7.1277344E-1,-1.009724E0,-8.308675E-1,-6.96522E-1,-4.882965E-1,-5.8287376E-1,-3.4862444E-1,-2.0929605E-1,-4.4017714E-2,8.5605234E-2,1.7544357E-1,3.003715E-1,3.940251E-1,5.303147E-1,5.899948E-1,7.854358E-1],"split_indices":[1,1,1,1,1,1,1,1,0,1,0,0,1,1,0,0,0,0,0,0,0,0,0,0,0,0,0,0,0],"split_type":[0,0,0,0,0,0,0,0,0,0,0,0,0,0,0,0,0,0,0,0,0,0,0,0,0,0,0,0,0],"sum_hessian":[8.5E2,3.84E2,4.66E2,3.14E2,7E1,1.72E2,2.94E2,1.49E2,1.65E2,5.1E1,1.9E1,8.4E1,8.8E1,1.37E2,1.57E2,4.7E1,1.02E2,1.13E2,5.2E1,8E0,4.3E1,4.5E1,3.9E1,6.4E1,2.4E1,2.7E1,1.1E2,1.7E1,1.4E2],"tree_param":{"num_deleted":"0","num_feature":"3","num_nodes":"29","size_leaf_vector":"1"}},{"base_weights":[-7.3111667E-3,-8.633085E0,7.1038885E0,-9.864897E0,-3.046413E0,1.8424674E0,1.01653185E1,-1.1488744E1,-7.9786725E0,-3.7305512E0,-6.691993E-2,-6.631973E-2,3.079266E0,7.9419365E0,1.2042923E1,-7.82054E-1,-6.464885E-1,-3.6776263E-1,-5.002621E-1,-2.6955065E-1,-1.6774818E-1,-2.9101217E-2,1.4715095E-1,2.8357276E-1,1.5033104E-1,4.1473255E-1,5.200755E-1,5.565617E-1,7.3864394E-1],"categories":[],"categories_nodes":[],"categories_segments":[],"categories_sizes":[],"default_left":[0,0,0,0,0,0,0,0,0,0,0,0,0,0,0,0,0,0,0,0,0,0,0,0,0,0,0,0,0],"id":8,"left_children":[1,3,5,7,9,11,13,15,17,19,-1,21,23,25,27,-1,-1,-1,-1,-1,-1,-1,-1,-1,-1,-1,-1,-1,-1],"loss_changes":[5.226133E4,2.619414E3,7.503461E3,8.7316016E2,8.96391E1,4.0862E2,1.135873E3,4.3822266E1,4.7823242E1,2.447638E1,0E0,7.395954E1,8.73764E1,4.325E1,2.8828125E0,0E0,0E0,0E0,0E0,0E0,0E0,0E0,0E0,0E0,0E0,0E0,0E0,0E0,0E0],"parents":[2147483647,0,0,1,1,2,2,3,3,4,4,5,5,6,6,7,7,8,8,9,9,11,11,12,12,13,13,14,14],"right_children":[2,4,6,8,10,12,14,16,18,20,-1,22,24,26,28,-1,-1,-1,-1,-1,-1,-1,-1,-1,-1,-1,-1,-1,-1],"split_conditions":[-2.1195765E-1,-5.044339E-1,5.262283E-1,-1.0067734E0,-2.9123935E-1,1.2448991E-1,1.100521E0,-1.4504844E0,-9.0150857E-1,4.743084E-1,-6.691993E-2,9.6898586E-1,-1.009724E0,-2.0369072E-2,-1.009724E0,-7.82054E-1,-6.464885E-1,-3.6776263E-1,-5.002621E-1,-2.6955065E-1,-1.6774818E-1,-2.9101217E-2,1.4715095E-1,2.8357276E-1,1.5033104E-1,4.1473255E-1,5.200755E-1,5.565617E-1,7.3864394E-1],"split_indices":[1,1,1,1,1,1,1,1,1,0,0,0,0,0,0,0,0,0,0,0,0,0,0,0,0,0,0,0,0],"split_type":[0,0,0,0,0,0,0,0,0,0,0,0,0,0,0,0,0,0,0,0,0,0,0,0,0,0,0,0,0],"sum_hessian":[8.5E2,3.84E2,4.66E2,3.14E2,7E1,1.72E2,2.94E2,1.66E2,1.48E2,5.1E1,1.9E1,6.8E1,1.04E2,1.37E2,1.57E2,4.7E1,1.19E2,2.7E1,1.21E2,2.6E1,2.5E1,5.9E1,9E0,2.5E1,7.9E1,6.1E1,7.6E1,1.7E1,1.4E2],"tree_param":{"num_deleted":"0","num_feature":"3","num_nodes":"29","size_leaf_vector":"1"}},{"base_weights":[-6.894632E-3,-8.122375E0,6.6836123E0,-9.361155E0,-3.2055662E0,1.7351108E0,9.562959E0,-1.0983972E1,-7.761258E0,-3.415277E-1,-2.4837072E0,2.3473905E-1,3.1485546E0,7.472193E0,1.1328546E1,-7.3610836E-1,-6.167238E-1,-5.2726483E-1,-4.388305E-1,-1.8468873E-1,-6.310543E-2,-4.136417E-2,7.7498026E-2,1.5423009E-1,2.7153295E-1,3.4316945E-1,4.7081992E-1,5.9636074E-1,7.138677E-1],"categories":[],"categories_nodes":[],"categories_segments":[],"categories_sizes":[],"default_left":[0,0,0,0,0,0,0,0,0,0,0,0,0,0,0,0,0,0,0,0,0,0,0,0,0,0,0,0,0],"id":9,"left_children":[1,3,5,7,9,11,13,15,17,-1,19,21,23,25,27,-1,-1,-1,-1,-1,-1,-1,-1,-1,-1,-1,-1,-1,-1],"loss_changes":[4.6260758E4,2.3149668E3,6.6374336E3,7.118242E2,1.2766333E2,3.6614038E2,1.0043262E3,9.779297E0,8.291992E0,0E0,5.038855E1,8.391171E1,5.9208984E1,4.5773926E1,6.689453E0,0E0,0E0,0E0,0E0,0E0,0E0,0E0,0E0,0E0,0E0,0E0,0E0,0E0,0E0],"parents":[2147483647,0,0,1,1,2,2,3,3,4,4,5,5,6,6,7,7,8,8,10,10,11,11,12,12,13,13,14,14],"right_children":[2,4,6,8,10,12,14,16,18,-1,20,22,24,26,28,-1,-1,-1,-1,-1,-1,-1,-1,-1,-1,-1,-1,-1,-1],"split_conditions":[-2.1195765E-1,-5.564E-1,5.262283E-1,-1.0134357E0,-4.79117E-1,1.5980025E-1,1.100521E0,-1.4504844E0,-5.1504654E-1,-3.415277E-1,-2.9123935E-1,4.743084E-1,4.30957E-1,7.1277344E-1,1.3057207E0,-7.3610836E-1,-6.167238E-1,-5.2726483E-1,-4.388305E-1,-1.8468873E-1,-6.310543E-2,-4.136417E-2,7.7498026E-2,1.5423009E-1,2.7153295E-1,3.4316945E-1,4.7081992E-1,5.9636074E-1,7.138677E-1],"split_indices":[1,1,1,1,1,1,1,1,0,0,1,0,1,1,1,0,0,0,0,0,0,0,0,0,0,0,0,0,0],"split_type":[0,0,0,0,0,0,0,0,0,0,0,0,0,0,0,0,0,0,0,0,0,0,0,0,0,0,0,0,0],"sum_hessian":[8.5E2,3.84E2,4.66E2,3.06E2,7.8E1,1.72E2,2.94E2,1.49E2,1.57E2,1.6E1,6.2E1,8.4E1,8.8E1,1.37E2,1.57E2,4.7E1,1.02E2,4.2E1,1.15E2,4.3E1,1.9E1,4.5E1,3.9E1,6.4E1,2.4E1,2.7E1,1.1E2,5.1E1,1.06E2],"tree_param":{"num_deleted":"0","num_feature":"3","num_nodes":"29","size_leaf_vector":"1"}},{"base_weights":[-6.859338E-3,-7.6425858E0,6.288133E0,-8.961141E0,-3.5231953E0,1.6336739E0,8.996382E0,-1.0179451E1,-7.2617884E0,-3.4067386E-1,-2.3386178E0,-7.154476E-2,2.7386875E0,7.0297585E0,1.0657126E1,-6.928619E-1,-5.728394E-1,-5.326396E-1,-3.9514852E-1,-1.0481012E-1,-2.2326162E-1,1.413063E-1,-2.8487636E-2,2.5587866E-1,1.3251106E-1,3.63568E-1,4.6318418E-1,6.077457E-1,7.41018E-1],"categories":[],"categories_nodes":[],"categories_segments":[],"categories_sizes":[],"default_left":[0,0,0,0,0,0,0,0,0,0,0,0,0,0,0,0,0,0,0,0,0,0,0,0,0,0,0,0,0],"id":10,"left_children":[1,3,5,7,9,11,13,15,17,-1,19,21,23,25,27,-1,-1,-1,-1,-1,-1,-1,-1,-1,-1,-1,-1,-1,-1],"loss_changes":[4.0952938E4,2.0596094E3,5.872039E3,5.285488E2,2.292008E2,3.2617804E2,8.8857227E2,3.4189453E1,7.8043945E1,0E0,4.5039368E1,6.863776E1,7.552814E1,4.5609863E1,1.616211E1,0E0,0E0,0E0,0E0,0E0,0E0,0E0,0E0,0E0,0E0,0E0,0E0,0E0,0E0],"parents":[2147483647,0,0,1,1,2,2,3,3,4,4,5,5,6,6,7,7,8,8,10,10,11,11,12,12,13,13,14,14],"right_children":[2,4,6,8,10,12,14,16,18,-1,20,22,24,26,28,-1,-1,-1,-1,-1,-1,-1,-1,-1,-1,-1,-1,-1,-1],"split_conditions":[-2.1195765E-1,-6.3035184E-1,5.262283E-1,-1.0067734E0,-4.79117E-1,1.2448991E-1,1.100521E0,-1.4504844E0,-5.1504654E-1,-3.4067386E-1,9.6898586E-1,-5.1504654E-1,-1.009724E0,-2.0369072E-2,1.638837E0,-6.928619E-1,-5.728394E-1,-5.326396E-1,-3.9514852E-1,-1.0481012E-1,-2.2326162E-1,1.413063E-1,-2.8487636E-2,2.5587866E-1,1.3251106E-1,3.63568E-1,4.6318418E-1,6.077457E-1,7.41018E-1],"split_indices":[1,1,1,1,1,1,1,1,0,0,0,0,0,0,1,0,0,0,0,0,0,0,0,0,0,0,0,0,0],"split_type":[0,0,0,0,0,0,0,0,0,0,0,0,0,0,0,0,0,0,0,0,0,0,0,0,0,0,0,0,0],"sum_hessian":[8.5E2,3.84E2,4.66E2,2.9E2,9.4E1,1.72E2,2.94E2,1.66E2,1.24E2,3.2E1,6.2E1,6.8E1,1.04E2,1.37E2,1.57E2,4.7E1,1.19E2,3.3E1,9.1E1,4.5E1,1.7E1,9E0,5.9E1,2.5E1,7.9E1,6.1E1,7.6E1,1.25E2,3.2E1],"tree_param":{"num_deleted":"0","num_feature":"3","num_nodes":"29","size_leaf_vector":"1"}},{"base_weights":[-6.665629E-3,-7.191465E0,5.916577E0,-8.431009E0,-3.3188434E0,2.0272E0,8.79702E0,-9.7273245E0,-7.00229E0,-3.2085288E-1,-2.2035086E0,2.009473E-1,3.3479266E0,4.296424E-1,6.145158E-1,-7.391243E-1,-5.6219894E-1,-3.8440984E-1,-4.863425E-1,-1.6496766E-1,-5.3534247E-2,-4.0727478E-2,7.245738E-2,1.3546838E-1,2.7877164E-1],"categories":[],"categories_nodes":[],"categories_segments":[],"categories_sizes":[],"default_left":[0,0,0,0,0,0,0,0,0,0,0,0,0,0,0,0,0,0,0,0,0,0,0,0,0],"id":11,"left_children":[1,3,5,7,9,11,13,15,17,-1,19,21,23,-1,-1,-1,-1,-1,-1,-1,-1,-1,-1,-1,-1],"loss_changes":[3.6258816E4,1.8201309E3,5.2140283E3,4.7083984E2,2.0317151E2,4.8172333E2,5.603008E2,2.3475586E1,4.1368164E1,0E0,4.264804E1,7.6096695E1,1.5368091E2,0E0,0E0,0E0,0E0,0E0,0E0,0E0,0E0,0E0,0E0,0E0,0E0],"parents":[2147483647,0,0,1,1,2,2,3,3,4,4,5,5,6,6,7,7,8,8,10,10,11,11,12,12],"right_children":[2,4,6,8,10,12,14,16,18,-1,20,22,24,-1,-1,-1,-1,-1,-1,-1,-1,-1,-1,-1,-1],"split_conditions":[-2.1195765E-1,-6.3035184E-1,7.1277344E-1,-1.0134357E0,-4.79117E-1,1.5980025E-1,1.2271051E0,-1.6057166E0,9.6898586E-1,-3.2085288E-1,-2.9123935E-1,4.743084E-1,4.30957E-1,4.296424E-1,6.145158E-1,-7.391243E-1,-5.6219894E-1,-3.8440984E-1,-4.863425E-1,-1.6496766E-1,-5.3534247E-2,-4.0727478E-2,7.245738E-2,1.3546838E-1,2.7877164E-1],"split_indices":[1,1,1,1,1,1,1,1,0,0,1,0,1,0,0,0,0,0,0,0,0,0,0,0,0],"split_type":[0,0,0,0,0,0,0,0,0,0,0,0,0,0,0,0,0,0,0,0,0,0,0,0,0],"sum_hessian":[8.5E2,3.84E2,4.66E2,2.9E2,9.4E1,1.99E2,2.67E2,1.49E2,1.41E2,3.2E1,6.2E1,8.4E1,1.15E2,1.28E2,1.39E2,1.4E1,1.35E2,9.6E1,4.5E1,4.3E1,1.9E1,4.5E1,3.9E1,6.4E1,5.1E1],"tree_param":{"num_deleted":"0","num_feature":"3","num_nodes":"25","size_leaf_vector":"1"}},{"base_weights":[-7.7009583E-3,-6.7670197E0,5.564773E0,-7.9326134E0,-3.12539E0,1.9077983E0,8.273095E0,-9.015203E0,-6.422812E0,-3.021851E-1,-2.074766E0,1.8926328E-1,3.150623E0,4.0406376E-1,9.631803E0,-6.9773334E-1,-5.220022E-1,-4.79235E-1,-3.464902E-1,-9.173695E-2,-2.0126195E-1,-3.8337056E-2,6.821868E-2,1.2746538E-1,2.6236707E-1,5.4681635E-1,6.6215056E-1],"categories":[],"categories_nodes":[],"categories_segments":[],"categories_sizes":[],"default_left":[0,0,0,0,0,0,0,0,0,0,0,0,0,0,0,0,0,0,0,0,0,0,0,0,0,0,0],"id":12,"left_children":[1,3,5,7,9,11,13,15,17,-1,19,21,23,-1,25,-1,-1,-1,-1,-1,-1,-1,-1,-1,-1,-1,-1],"loss_changes":[3.2091531E4,1.6094043E3,4.6095107E3,4.1773438E2,1.8028894E2,4.265713E2,4.9542578E2,3.6393555E1,8.0589355E1,0E0,3.8872253E1,6.744389E1,1.3619556E2,0E0,1.2832031E0,0E0,0E0,0E0,0E0,0E0,0E0,0E0,0E0,0E0,0E0,0E0,0E0],"parents":[2147483647,0,0,1,1,2,2,3,3,4,4,5,5,6,6,7,7,8,8,10,10,11,11,12,12,14,14],"right_children":[2,4,6,8,10,12,14,16,18,-1,20,22,24,-1,26,-1,-1,-1,-1,-1,-1,-1,-1,-1,-1,-1,-1],"split_conditions":[-2.1195765E-1,-6.3035184E-1,7.1277344E-1,-1.0067734E0,-4.79117E-1,1.5980025E-1,1.2271051E0,-1.6057166E0,-5.1504654E-1,-3.021851E-1,9.6898586E-1,4.743084E-1,4.30957E-1,4.0406376E-1,1.638837E0,-6.9773334E-1,-5.220022E-1,-4.79235E-1,-3.464902E-1,-9.173695E-2,-2.0126195E-1,-3.8337056E-2,6.821868E-2,1.2746538E-1,2.6236707E-1,5.4681635E-1,6.6215056E-1],"split_indices":[1,1,1,1,1,1,1,1,0,0,0,0,1,0,1,0,0,0,0,0,0,0,0,0,0,0,0],"split_type":[0,0,0,0,0,0,0,0,0,0,0,0,0,0,0,0,0,0,0,0,0,0,0,0,0,0,0],"sum_hessian":[8.5E2,3.84E2,4.66E2,2.9E2,9.4E1,1.99E2,2.67E2,1.66E2,1.24E2,3.2E1,6.2E1,8.4E1,1.15E2,1.28E2,1.39E2,1.4E1,1.52E2,3.3E1,9.1E1,4.5E1,1.7E1,4.5E1,3.9E1,6.4E1,5.1E1,1.07E2,3.2E1],"tree_param":{"num_deleted":"0","num_feature":"3","num_nodes":"27","size_leaf_vector":"1"}},{"base_weights":[-7.953421E-3,-5.635522E0,5.9179635E0,-7.2088685E0,-1.1674669E0,2.5012429E0,7.7827272E0,-8.481596E0,-5.809159E0,-2.4562738E0,-3.6364782E-1,1.6101019E0,4.115463E0,6.3334637E0,9.062529E0,-5.754838E-1,-4.7198212E-1,-4.1996822E-1,-3.1881428E-1,-1.1373517E-1,-2.655663E-1,1.5799789E-2,-1.1393084E-1,1.22781254E-1,1.187417E-2,1.7098355E-1,3.2210815E-1,4.436679E-1,3.5963082E-1,5.143111E-1,6.236254E-1],"categories":[],"categories_nodes":[],"categories_segments":[],"categories_sizes":[],"default_left":[0,0,0,0,0,0,0,0,0,0,0,0,0,0,0,0,0,0,0,0,0,0,0,0,0,0,0,0,0,0,0],"id":13,"left_children":[1,3,5,7,9,11,13,15,17,19,21,23,25,27,29,-1,-1,-1,-1,-1,-1,-1,-1,-1,-1,-1,-1,-1,-1,-1,-1],"loss_changes":[2.8412928E4,3.0636045E3,2.6246553E3,5.261367E2,1.1824307E2,2.062713E2,4.3968066E2,3.857422E1,5.5422363E1,4.0206177E1,6.980259E1,5.935431E1,6.717212E1,2.161621E0,2.3544922E0,0E0,0E0,0E0,0E0,0E0,0E0,0E0,0E0,0E0,0E0,0E0,0E0,0E0,0E0,0E0,0E0],"parents":[2147483647,0,0,1,1,2,2,3,3,4,4,5,5,6,6,7,7,8,8,9,9,10,10,11,11,12,12,13,13,14,14],"right_children":[2,4,6,8,10,12,14,16,18,20,22,24,26,28,30,-1,-1,-1,-1,-1,-1,-1,-1,-1,-1,-1,-1,-1,-1,-1,-1],"split_conditions":[2.988485E-2,-4.79117E-1,7.1277344E-1,-1.0067734E0,-2.9123935E-1,4.30957E-1,1.2271051E0,-1.3951871E0,-5.1504654E-1,-3.3654317E-1,-2.7411168E-2,3.6166877E-1,-5.1504654E-1,8.473525E-1,1.638837E0,-5.754838E-1,-4.7198212E-1,-4.1996822E-1,-3.1881428E-1,-1.1373517E-1,-2.655663E-1,1.5799789E-2,-1.1393084E-1,1.22781254E-1,1.187417E-2,1.7098355E-1,3.2210815E-1,4.436679E-1,3.5963082E-1,5.143111E-1,6.236254E-1],"split_indices":[1,1,1,1,1,1,1,1,0,1,1,1,0,1,1,0,0,0,0,0,0,0,0,0,0,0,0,0,0,0,0],"split_type":[0,0,0,0,0,0,0,0,0,0,0,0,0,0,0,0,0,0,0,0,0,0,0,0,0,0,0,0,0,0,0],"sum_hessian":[8.5E2,4.36E2,4.14E2,3.22E2,1.14E2,1.47E2,2.67E2,1.66E2,1.56E2,4.3E1,7.1E1,9.6E1,5.1E1,1.28E2,1.39E2,5.4E1,1.12E2,4.2E1,1.14E2,3.5E1,8E0,5.1E1,2E1,7.3E1,2.3E1,2.7E1,2.4E1,2.6E1,1.02E2,1.07E2,3.2E1],"tree_param":{"num_deleted":"0","num_feature":"3","num_nodes":"31","size_leaf_vector":"1"}},{"base_weights":[-7.117646E-3,-5.994541E0,4.9289966E0,-7.0279155E0,-2.766053E0,1.2829623E0,7.050471E0,-8.1113405E0,-5.8339596E0,-2.6439896E-1,-1.8627872E0,-8.6012796E-2,2.1703558E0,5.4878807E0,8.370642E0,-6.2643325E-1,-4.67688E-1,-3.1567544E-1,-4.148873E-1,-8.130257E-2,-1.8341208E-1,1.3709186E-1,-2.8783526E-2,2.1208459E-1,1.0198802E-1,2.7455047E-1,3.690587E-1,3.7117365E-1,5.1540816E-1],"categories":[],"categories_nodes":[],"categories_segments":[],"categories_sizes":[],"default_left":[0,0,0,0,0,0,0,0,0,0,0,0,0,0,0,0,0,0,0,0,0,0,0,0,0,0,0,0,0],"id":14,"left_children":[1,3,5,7,9,11,13,15,17,-1,19,21,23,25,27,-1,-1,-1,-1,-1,-1,-1,-1,-1,-1,-1,-1,-1,-1],"loss_changes":[2.5180516E4,1.2650117E3,3.6031846E3,3.291045E2,1.3257141E2,2.1035046E2,5.6261426E2,2.9211914E1,5.15166E1,0E0,3.405394E1,6.550377E1,6.1403717E1,5.53125E1,2.2615234E1,0E0,0E0,0E0,0E0,0E0,0E0,0E0,0E0,0E0,0E0,0E0,0E0,0E0,0E0],"parents":[2147483647,0,0,1,1,2,2,3,3,4,4,5,5,6,6,7,7,8,8,10,10,11,11,12,12,13,13,14,14],"right_children":[2,4,6,8,10,12,14,16,18,-1,20,22,24,26,28,-1,-1,-1,-1,-1,-1,-1,-1,-1,-1,-1,-1,-1,-1],"split_conditions":[-2.1195765E-1,-6.3035184E-1,5.262283E-1,-1.0134357E0,-4.79117E-1,1.2448991E-1,1.100521E0,-1.6057166E0,9.6898586E-1,-2.6439896E-1,9.6898586E-1,-5.1504654E-1,-1.009724E0,-2.0369072E-2,-1.009724E0,-6.2643325E-1,-4.67688E-1,-3.1567544E-1,-4.148873E-1,-8.130257E-2,-1.8341208E-1,1.3709186E-1,-2.8783526E-2,2.1208459E-1,1.0198802E-1,2.7455047E-1,3.690587E-1,3.7117365E-1,5.1540816E-1],"split_indices":[1,1,1,1,1,1,1,1,0,0,0,0,0,0,0,0,0,0,0,0,0,0,0,0,0,0,0,0,0],"split_type":[0,0,0,0,0,0,0,0,0,0,0,0,0,0,0,0,0,0,0,0,0,0,0,0,0,0,0,0,0],"sum_hessian":[8.5E2,3.84E2,4.66E2,2.9E2,9.4E1,1.72E2,2.94E2,1.49E2,1.41E2,3.2E1,6.2E1,6.8E1,1.04E2,1.37E2,1.57E2,1.4E1,1.35E2,9.6E1,4.5E1,4.5E1,1.7E1,9E0,5.9E1,2.5E1,7.9E1,6.1E1,7.6E1,1.7E1,1.4E2],"tree_param":{"num_deleted":"0","num_feature":"3","num_nodes":"29","size_leaf_vector":"1"}},{"base_weights":[-7.1625975E-3,-5.6409826E0,4.637437E0,-6.612511E0,-2.6056595E0,1.5863329E0,6.897076E0,-7.631955E0,-5.489067E0,-2.490158E-1,-1.7552216E0,1.3915944E-1,2.6330864E0,5.620105E0,8.024449E0,-6.1775947E-1,-4.4208744E-1,-4.0848622E-1,-3.0163595E-1,-7.653046E-2,-1.730187E-1,-3.605857E-2,5.9210185E-2,1.3223085E-1,2.8250834E-1,4.0007055E-1,3.1745344E-1,4.5382115E-1,5.5735433E-1],"categories":[],"categories_nodes":[],"categories_segments":[],"categories_sizes":[],"default_left":[0,0,0,0,0,0,0,0,0,0,0,0,0,0,0,0,0,0,0,0,0,0,0,0,0,0,0,0,0],"id":15,"left_children":[1,3,5,7,9,11,13,15,17,-1,19,21,23,25,27,-1,-1,-1,-1,-1,-1,-1,-1,-1,-1,-1,-1,-1,-1],"loss_changes":[2.229414E4,1.1180977E3,3.2087402E3,2.9138672E2,1.1750635E2,3.0260043E2,3.407207E2,2.9566406E1,5.2270508E1,0E0,3.0425095E1,5.3921722E1,9.2960266E1,9.217285E0,1.1327148E1,0E0,0E0,0E0,0E0,0E0,0E0,0E0,0E0,0E0,0E0,0E0,0E0,0E0,0E0],"parents":[2147483647,0,0,1,1,2,2,3,3,4,4,5,5,6,6,7,7,8,8,10,10,11,11,12,12,13,13,14,14],"right_children":[2,4,6,8,10,12,14,16,18,-1,20,22,24,26,28,-1,-1,-1,-1,-1,-1,-1,-1,-1,-1,-1,-1,-1,-1],"split_conditions":[-2.1195765E-1,-6.3035184E-1,7.1277344E-1,-1.0134357E0,-4.79117E-1,1.5980025E-1,1.2271051E0,-1.6570165E0,-5.1504654E-1,-2.490158E-1,9.6898586E-1,4.743084E-1,9.6898586E-1,8.473525E-1,1.638837E0,-6.1775947E-1,-4.4208744E-1,-4.0848622E-1,-3.0163595E-1,-7.653046E-2,-1.730187E-1,-3.605857E-2,5.9210185E-2,1.3223085E-1,2.8250834E-1,4.0007055E-1,3.1745344E-1,4.5382115E-1,5.5735433E-1],"split_indices":[1,1,1,1,1,1,1,1,0,0,0,0,0,1,1,0,0,0,0,0,0,0,0,0,0,0,0,0,0],"split_type":[0,0,0,0,0,0,0,0,0,0,0,0,0,0,0,0,0,0,0,0,0,0,0,0,0,0,0,0,0],"sum_hessian":[8.5E2,3.84E2,4.66E2,2.9E2,9.4E1,1.99E2,2.67E2,1.49E2,1.41E2,3.2E1,6.2E1,8.4E1,1.15E2,1.28E2,1.39E2,1E1,1.39E2,3.3E1,1.08E2,4.5E1,1.7E1,4.5E1,3.9E1,9.7E1,1.8E1,2.6E1,1.02E2,1.07E2,3.2E1],"tree_param":{"num_deleted":"0","num_feature":"3","num_nodes":"29","size_leaf_vector":"1"}},{"base_weights":[-6.852874E-3,-4.524541E0,5.1222687E0,-6.004788E0,-8.4023213E-1,2.3071587E0,6.489702E0,-7.0752425E0,-4.8279047E0,-2.0865407E0,-2.0752977E-1,1.5418464E0,3.4549117E0,5.110397E0,7.4176335E0,-5.2849114E-1,-4.0423712E-1,-3.5556352E-1,-2.625185E-1,-9.226672E-2,-2.4298501E-1,-2.9147353E-2,1.20688386E-1,1.3013805E-1,-2.2764397E-3,1.4208831E-1,2.7203408E-1,3.3735892E-1,2.1239372E-1,4.2060786E-1,5.249265E-1],"categories":[],"categories_nodes":[],"categories_segments":[],"categories_sizes":[],"default_left":[0,0,0,0,0,0,0,0,0,0,0,0,0,0,0,0,0,0,0,0,0,0,0,0,0,0,0,0,0,0,0],"id":16,"left_children":[1,3,5,7,9,11,13,15,17,19,21,23,25,27,29,-1,-1,-1,-1,-1,-1,-1,-1,-1,-1,-1,-1,-1,-1,-1,-1],"loss_changes":[1.9742352E4,2.4654746E3,1.5209688E3,3.727578E2,1.0286603E2,1.1062042E2,3.0510645E2,3.8461914E1,5.2104248E1,4.117511E1,5.5313507E1,8.0330475E1,5.0239197E1,6.939526E1,2.4375977E1,0E0,0E0,0E0,0E0,0E0,0E0,0E0,0E0,0E0,0E0,0E0,0E0,0E0,0E0,0E0,0E0],"parents":[2147483647,0,0,1,1,2,2,3,3,4,4,5,5,6,6,7,7,8,8,9,9,10,10,11,11,12,12,13,13,14,14],"right_children":[2,4,6,8,10,12,14,16,18,20,22,24,26,28,30,-1,-1,-1,-1,-1,-1,-1,-1,-1,-1,-1,-1,-1,-1,-1,-1],"split_conditions":[1.2448991E-1,-4.79117E-1,7.1277344E-1,-1.0067734E0,-2.9123935E-1,4.30957E-1,1.100521E0,-1.5803998E0,-5.1504654E-1,-3.3654317E-1,9.6898586E-1,3.6166877E-1,-5.1504654E-1,9.91925E-1,1.638837E0,-5.2849114E-1,-4.0423712E-1,-3.5556352E-1,-2.625185E-1,-9.226672E-2,-2.4298501E-1,-2.9147353E-2,1.20688386E-1,1.3013805E-1,-2.2764397E-3,1.4208831E-1,2.7203408E-1,3.3735892E-1,2.1239372E-1,4.2060786E-1,5.249265E-1],"split_indices":[1,1,1,1,1,1,1,1,0,1,0,1,0,1,1,0,0,0,0,0,0,0,0,0,0,0,0,0,0,0,0],"split_type":[0,0,0,0,0,0,0,0,0,0,0,0,0,0,0,0,0,0,0,0,0,0,0,0,0,0,0,0,0,0,0],"sum_hessian":[8.5E2,4.52E2,3.98E2,3.22E2,1.3E2,1.31E2,2.67E2,1.66E2,1.56E2,4.3E1,8.7E1,8E1,5.1E1,1.1E2,1.57E2,2.3E1,1.43E2,4.2E1,1.14E2,3.5E1,8E0,7.8E1,9E0,5.7E1,2.3E1,2.7E1,2.4E1,8.1E1,2.9E1,1.25E2,3.2E1],"tree_param":{"num_deleted":"0","num_feature":"3","num_nodes":"31","size_leaf_vector":"1"}},{"base_weights":[-6.156593E-3,-4.9953017E0,4.1069636E0,-5.859011E0,-2.2970417E0,1.4078555E0,6.105899E0,-6.7605085E0,-4.865465E0,-2.1773125E-1,-1.5629644E0,1.1403916E-1,2.343774E0,4.970191E0,7.108759E0,-5.5523664E-1,-3.9097837E-1,-2.5864825E-1,-3.5575828E-1,-6.6614345E-2,-1.5798585E-1,1.3321011E-1,-9.875019E-3,9.469625E-2,1.953348E-1,2.6230523E-1,3.275231E-1,4.0184125E-1,4.9438533E-1],"categories":[],"categories_nodes":[],"categories_segments":[],"categories_sizes":[],"default_left":[0,0,0,0,0,0,0,0,0,0,0,0,0,0,0,0,0,0,0,0,0,0,0,0,0,0,0,0,0],"id":17,"left_children":[1,3,5,7,9,11,13,15,17,-1,19,21,23,25,27,-1,-1,-1,-1,-1,-1,-1,-1,-1,-1,-1,-1,-1,-1],"loss_changes":[1.7483846E4,8.8378906E2,2.5110283E3,2.2774902E2,8.720523E1,2.4191406E2,2.699082E2,3.1033691E1,5.822998E1,0E0,2.7598648E1,5.024474E1,7.5828735E1,1.3849365E1,9.95752E0,0E0,0E0,0E0,0E0,0E0,0E0,0E0,0E0,0E0,0E0,0E0,0E0,0E0,0E0],"parents":[2147483647,0,0,1,1,2,2,3,3,4,4,5,5,6,6,7,7,8,8,10,10,11,11,12,12,13,13,14,14],"right_children":[2,4,6,8,10,12,14,16,18,-1,20,22,24,26,28,-1,-1,-1,-1,-1,-1,-1,-1,-1,-1,-1,-1,-1,-1],"split_conditions":[-2.1195765E-1,-6.3035184E-1,7.1277344E-1,-1.0134357E0,-4.79117E-1,1.5980025E-1,1.2271051E0,-1.6570165E0,9.6898586E-1,-2.1773125E-1,9.6898586E-1,-5.1504654E-1,4.30957E-1,9.366277E-1,1.638837E0,-5.5523664E-1,-3.9097837E-1,-2.5864825E-1,-3.5575828E-1,-6.6614345E-2,-1.5798585E-1,1.3321011E-1,-9.875019E-3,9.469625E-2,1.953348E-1,2.6230523E-1,3.275231E-1,4.0184125E-1,4.9438533E-1],"split_indices":[1,1,1,1,1,1,1,1,0,0,0,0,1,1,1,0,0,0,0,0,0,0,0,0,0,0,0,0,0],"split_type":[0,0,0,0,0,0,0,0,0,0,0,0,0,0,0,0,0,0,0,0,0,0,0,0,0,0,0,0,0],"sum_hessian":[8.5E2,3.84E2,4.66E2,2.9E2,9.4E1,1.99E2,2.67E2,1.49E2,1.41E2,3.2E1,6.2E1,8.4E1,1.15E2,1.28E2,1.39E2,1E1,1.39E2,9.6E1,4.5E1,4.5E1,1.7E1,9E0,7.5E1,6.4E1,5.1E1,6.2E1,6.6E1,1.07E2,3.2E1],"tree_param":{"num_deleted":"0","num_feature":"3","num_nodes":"29","size_leaf_vector":"1"}},{"base_weights":[-5.9086713E-3,-4.008084E0,4.5379295E0,-5.31585E0,-7.529971E-1,2.7325108E0,6.2161493E0,-6.2660775E0,-4.271239E0,-1.8685653E0,-1.8665625E-1,1.3780434E0,3.6709259E0,5.3485775E0,6.9688687E0,-4.3189272E-1,-3.4541586E-1,-3.2008165E-1,-2.3018748E-1,-8.040985E-2,-2.2647308E-1,-2.6994808E-2,1.14704475E-1,1.1861143E-1,-7.5905127E-3,2.4132371E-1,9.448525E-2,3.4933126E-1,1.6162579E-1,5.578834E-1,3.8359946E-1],"categories":[],"categories_nodes":[],"categories_segments":[],"categories_sizes":[],"default_left":[0,0,0,0,0,0,0,0,0,0,0,0,0,0,0,0,0,0,0,0,0,0,0,0,0,0,0,0,0,0,0],"id":18,"left_children":[1,3,5,7,9,11,13,15,17,19,21,23,25,27,29,-1,-1,-1,-1,-1,-1,-1,-1,-1,-1,-1,-1,-1,-1,-1,-1],"loss_changes":[1.5493825E4,1.9243682E3,1.1919395E3,2.9385156E2,8.241595E1,2.4152563E2,9.725244E1,3.7817383E1,5.2125732E1,3.925499E1,4.9472927E1,7.3226776E1,7.757483E1,1.1005151E2,8.3993164E1,0E0,0E0,0E0,0E0,0E0,0E0,0E0,0E0,0E0,0E0,0E0,0E0,0E0,0E0,0E0,0E0],"parents":[2147483647,0,0,1,1,2,2,3,3,4,4,5,5,6,6,7,7,8,8,9,9,10,10,11,11,12,12,13,13,14,14],"right_children":[2,4,6,8,10,12,14,16,18,20,22,24,26,28,30,-1,-1,-1,-1,-1,-1,-1,-1,-1,-1,-1,-1,-1,-1,-1,-1],"split_conditions":[1.2448991E-1,-4.79117E-1,9.366277E-1,-1.0067734E0,-2.9123935E-1,4.30957E-1,1.3057207E0,-1.3951871E0,-5.1504654E-1,-3.3654317E-1,9.6898586E-1,3.6166877E-1,9.133095E-1,1.2617493E0,1.37834E0,-4.3189272E-1,-3.4541586E-1,-3.2008165E-1,-2.3018748E-1,-8.040985E-2,-2.2647308E-1,-2.6994808E-2,1.14704475E-1,1.1861143E-1,-7.5905127E-3,2.4132371E-1,9.448525E-2,3.4933126E-1,1.6162579E-1,5.578834E-1,3.8359946E-1],"split_indices":[1,1,1,1,1,1,1,1,0,1,0,1,1,1,1,0,0,0,0,0,0,0,0,0,0,0,0,0,0,0,0],"split_type":[0,0,0,0,0,0,0,0,0,0,0,0,0,0,0,0,0,0,0,0,0,0,0,0,0,0,0,0,0,0,0],"sum_hessian":[8.5E2,4.52E2,3.98E2,3.22E2,1.3E2,1.93E2,2.05E2,1.66E2,1.56E2,4.3E1,8.7E1,8E1,1.13E2,9.9E1,1.06E2,5.4E1,1.12E2,4.2E1,1.14E2,3.5E1,8E0,7.8E1,9E0,5.7E1,2.3E1,9.6E1,1.7E1,8.3E1,1.6E1,1.8E1,8.8E1],"tree_param":{"num_deleted":"0","num_feature":"3","num_nodes":"31","size_leaf_vector":"1"}},{"base_weights":[-5.139703E-3,-3.7710133E0,4.270414E0,-5.001009E0,-7.094892E-1,1.9095136E0,5.4173107E0,-5.8947678E0,-4.018469E0,-1.763426E0,-1.7445855E-1,1.2228426E0,2.9761317E0,4.4011893E0,6.314899E0,-5.0139326E-1,-3.4108436E-1,-3.0132338E-1,-2.1649626E-1,-7.571927E-2,-2.1439452E-1,-2.5395514E-2,1.0851045E-1,1.09706245E-1,-9.624263E-2,1.2320856E-1,2.3121326E-1,3.2836473E-1,2.4465397E-1,3.5570517E-1,4.4330272E-1],"categories":[],"categories_nodes":[],"categories_segments":[],"categories_sizes":[],"default_left":[0,0,0,0,0,0,0,0,0,0,0,0,0,0,0,0,0,0,0,0,0,0,0,0,0,0,0,0,0,0,0],"id":19,"left_children":[1,3,5,7,9,11,13,15,17,19,21,23,25,27,29,-1,-1,-1,-1,-1,-1,-1,-1,-1,-1,-1,-1,-1,-1,-1,-1],"loss_changes":[1.3718219E4,1.7022969E3,1.0700312E3,2.5995557E2,7.356174E1,9.303949E1,2.1663867E2,3.8842285E1,4.651123E1,3.5421097E1,4.4181324E1,1.4331262E2,3.337433E1,2.241919E1,1.4281738E1,0E0,0E0,0E0,0E0,0E0,0E0,0E0,0E0,0E0,0E0,0E0,0E0,0E0,0E0,0E0,0E0],"parents":[2147483647,0,0,1,1,2,2,3,3,4,4,5,5,6,6,7,7,8,8,9,9,10,10,11,11,12,12,13,13,14,14],"right_children":[2,4,6,8,10,12,14,16,18,20,22,24,26,28,30,-1,-1,-1,-1,-1,-1,-1,-1,-1,-1,-1,-1,-1,-1,-1,-1],"split_conditions":[1.2448991E-1,-4.79117E-1,7.1277344E-1,-1.0067734E0,-2.9123935E-1,-2.0369072E-2,1.2271051E0,-1.6570165E0,-5.1504654E-1,-3.3654317E-1,9.6898586E-1,-5.1504654E-1,4.30957E-1,8.473525E-1,1.638837E0,-5.0139326E-1,-3.4108436E-1,-3.0132338E-1,-2.1649626E-1,-7.571927E-2,-2.1439452E-1,-2.5395514E-2,1.0851045E-1,1.09706245E-1,-9.624263E-2,1.2320856E-1,2.3121326E-1,3.2836473E-1,2.4465397E-1,3.5570517E-1,4.4330272E-1],"split_indices":[1,1,1,1,1,0,1,1,0,1,0,0,1,1,1,0,0,0,0,0,0,0,0,0,0,0,0,0,0,0,0],"split_type":[0,0,0,0,0,0,0,0,0,0,0,0,0,0,0,0,0,0,0,0,0,0,0,0,0,0,0,0,0,0,0],"sum_hessian":[8.5E2,4.52E2,3.98E2,3.22E2,1.3E2,1.31E2,2.67E2,1.66E2,1.56E2,4.3E1,8.7E1,8.1E1,5E1,1.28E2,1.39E2,1E1,1.56E2,4.2E1,1.14E2,3.5E1,8E0,7.8E1,9E0,6.7E1,1.4E1,2.6E1,2.4E1,2.6E1,1.02E2,1.07E2,3.2E1],"tree_param":{"num_deleted":"0","num_feature":"3","num_nodes":"31","size_leaf_vector":"1"}},{"base_weights":[-4.62906E-3,-3.5482128E0,4.018549E0,-4.7051606E0,-6.685005E-1,2.405396E0,5.5182247E0,-5.5461273E0,-3.7806597E0,-1.6642135E0,-1.6304736E-1,1.2196425E0,3.226805E0,4.7539177E0,6.1809583E0,-4.7404453E-1,-3.2074973E-1,-1.4578687E-1,-2.4255218E-1,-3.7594374E-2,-1.4566545E-1,-2.3891134E-2,1.0265096E-1,1.0787991E-1,-1.3732166E-2,2.1357253E-1,7.526722E-2,4.224056E-1,2.4784435E-1,5.05953E-1,3.3784992E-1],"categories":[],"categories_nodes":[],"categories_segments":[],"categories_sizes":[],"default_left":[0,0,0,0,0,0,0,0,0,0,0,0,0,0,0,0,0,0,0,0,0,0,0,0,0,0,0,0,0,0,0],"id":20,"left_children":[1,3,5,7,9,11,13,15,17,19,21,23,25,27,29,-1,-1,-1,-1,-1,-1,-1,-1,-1,-1,-1,-1,-1,-1,-1,-1],"loss_changes":[1.2146513E4,1.506104E3,9.5198975E2,2.3015625E2,6.5659164E1,1.8501819E2,7.4961914E1,3.652588E1,4.571826E1,3.3339325E1,3.9456215E1,6.826971E1,7.03501E1,1.13388916E2,8.505444E1,0E0,0E0,0E0,0E0,0E0,0E0,0E0,0E0,0E0,0E0,0E0,0E0,0E0,0E0,0E0,0E0],"parents":[2147483647,0,0,1,1,2,2,3,3,4,4,5,5,6,6,7,7,8,8,9,9,10,10,11,11,12,12,13,13,14,14],"right_children":[2,4,6,8,10,12,14,16,18,20,22,24,26,28,30,-1,-1,-1,-1,-1,-1,-1,-1,-1,-1,-1,-1,-1,-1,-1,-1],"split_conditions":[1.2448991E-1,-4.79117E-1,9.366277E-1,-1.0067734E0,-2.9123935E-1,4.30957E-1,1.3057207E0,-1.6570165E0,-9.0150857E-1,-4.124937E-1,9.6898586E-1,3.6166877E-1,9.133095E-1,9.91925E-1,1.37834E0,-4.7404453E-1,-3.2074973E-1,-1.4578687E-1,-2.4255218E-1,-3.7594374E-2,-1.4566545E-1,-2.3891134E-2,1.0265096E-1,1.0787991E-1,-1.3732166E-2,2.1357253E-1,7.526722E-2,4.224056E-1,2.4784435E-1,5.05953E-1,3.3784992E-1],"split_indices":[1,1,1,1,1,1,1,1,1,1,0,1,1,1,1,0,0,0,0,0,0,0,0,0,0,0,0,0,0,0,0],"split_type":[0,0,0,0,0,0,0,0,0,0,0,0,0,0,0,0,0,0,0,0,0,0,0,0,0,0,0,0,0,0,0],"sum_hessian":[8.5E2,4.52E2,3.98E2,3.22E2,1.3E2,1.93E2,2.05E2,1.66E2,1.56E2,4.3E1,8.7E1,8E1,1.13E2,9.9E1,1.06E2,1E1,1.56E2,2.7E1,1.29E2,1.9E1,2.4E1,7.8E1,9E0,5.7E1,2.3E1,9.6E1,1.7E1,1.9E1,8E1,1.8E1,8.8E1],"tree_param":{"num_deleted":"0","num_feature":"3","num_nodes":"31","size_leaf_vector":"1"}},{"base_weights":[-3.635318E-3,-3.3381627E0,3.7821906E0,-4.426514E0,-6.291879E-1,1.6710212E0,4.8079076E0,-5.3086147E0,-3.6406431E0,-1.5685257E0,-1.5236911E-1,1.0305159E0,2.6680882E0,3.7599862E0,5.513676E0,-4.277158E-1,-3.0413085E-1,-1.9140919E-1,-2.765357E-1,-6.622737E-2,-1.9519134E-1,2.4006186E-2,-5.5481907E-2,9.5934615E-2,-9.689439E-2,1.1201889E-1,2.0559357E-1,2.5699922E-1,1.3225232E-1,2.2867341E-1,3.4151438E-1],"categories":[],"categories_nodes":[],"categories_segments":[],"categories_sizes":[],"default_left":[0,0,0,0,0,0,0,0,0,0,0,0,0,0,0,0,0,0,0,0,0,0,0,0,0,0,0,0,0,0,0],"id":21,"left_children":[1,3,5,7,9,11,13,15,17,19,21,23,25,27,29,-1,-1,-1,-1,-1,-1,-1,-1,-1,-1,-1,-1,-1,-1,-1,-1],"loss_changes":[1.0755599E4,1.3328022E3,8.5598486E2,2.0458301E2,5.84351E1,8.1549225E1,1.77479E2,2.9321777E1,6.1196045E1,3.0857803E1,3.7918747E1,1.2588086E2,2.4591095E1,8.0934204E1,2.6248535E1,0E0,0E0,0E0,0E0,0E0,0E0,0E0,0E0,0E0,0E0,0E0,0E0,0E0,0E0,0E0,0E0],"parents":[2147483647,0,0,1,1,2,2,3,3,4,4,5,5,6,6,7,7,8,8,9,9,10,10,11,11,12,12,13,13,14,14],"right_children":[2,4,6,8,10,12,14,16,18,20,22,24,26,28,30,-1,-1,-1,-1,-1,-1,-1,-1,-1,-1,-1,-1,-1,-1,-1,-1],"split_conditions":[1.2448991E-1,-4.79117E-1,7.1277344E-1,-1.0134357E0,-2.9123935E-1,-2.0369072E-2,1.100521E0,-1.6057166E0,9.6898586E-1,-3.3654317E-1,-2.7411168E-2,-5.1504654E-1,4.30957E-1,9.91925E-1,-1.009724E0,-4.277158E-1,-3.0413085E-1,-1.9140919E-1,-2.765357E-1,-6.622737E-2,-1.9519134E-1,2.4006186E-2,-5.5481907E-2,9.5934615E-2,-9.689439E-2,1.1201889E-1,2.0559357E-1,2.5699922E-1,1.3225232E-1,2.2867341E-1,3.4151438E-1],"split_indices":[1,1,1,1,1,0,1,1,0,1,1,0,1,1,0,0,0,0,0,0,0,0,0,0,0,0,0,0,0,0,0],"split_type":[0,0,0,0,0,0,0,0,0,0,0,0,0,0,0,0,0,0,0,0,0,0,0,0,0,0,0,0,0,0,0],"sum_hessian":[8.5E2,4.52E2,3.98E2,3.22E2,1.3E2,1.31E2,2.67E2,1.49E2,1.73E2,4.3E1,8.7E1,8.1E1,5E1,1.1E2,1.57E2,1.4E1,1.35E2,1.21E2,5.2E1,3.5E1,8E0,5.1E1,3.6E1,6.7E1,1.4E1,2.6E1,2.4E1,8.1E1,2.9E1,1.7E1,1.4E2],"tree_param":{"num_deleted":"0","num_feature":"3","num_nodes":"31","size_leaf_vector":"1"}},{"base_weights":[-3.6718827E-3,-3.6880178E0,3.033752E0,-4.3393207E0,-1.654154E0,1.0229731E0,4.523013E0,-4.994977E0,-3.6161668E0,-2.2038777E0,-6.919989E-1,8.9920714E-2,1.6978565E0,3.5378933E0,5.1864643E0,-4.2485765E-1,-2.87724E-1,-1.874713E-1,-2.7445704E-1,-1.0730148E-1,-2.615869E-1,-1.8478118E-1,6.0111806E-3,1.2883976E-1,-1.0918447E-2,8.390134E-2,1.8919736E-1,2.4176727E-1,1.24581724E-1,2.9122385E-1,3.77984E-1],"categories":[],"categories_nodes":[],"categories_segments":[],"categories_sizes":[],"default_left":[0,0,0,0,0,0,0,0,0,0,0,0,0,0,0,0,0,0,0,0,0,0,0,0,0,0,0,0,0,0,0],"id":22,"left_children":[1,3,5,7,9,11,13,15,17,19,21,23,25,27,29,-1,-1,-1,-1,-1,-1,-1,-1,-1,-1,-1,-1,-1,-1,-1,-1],"loss_changes":[9.534661E3,5.028164E2,1.3938398E3,1.1991211E2,4.872229E1,1.2578764E2,1.5681006E2,2.849121E1,5.2597168E1,4.595233E1,6.8402214E1,4.7939655E1,4.6155365E1,7.1379395E1,2.7949219E1,0E0,0E0,0E0,0E0,0E0,0E0,0E0,0E0,0E0,0E0,0E0,0E0,0E0,0E0,0E0,0E0],"parents":[2147483647,0,0,1,1,2,2,3,3,4,4,5,5,6,6,7,7,8,8,9,9,10,10,11,11,12,12,13,13,14,14],"right_children":[2,4,6,8,10,12,14,16,18,20,22,24,26,28,30,-1,-1,-1,-1,-1,-1,-1,-1,-1,-1,-1,-1,-1,-1,-1,-1],"split_conditions":[-2.1195765E-1,-6.3035184E-1,7.1277344E-1,-1.0134357E0,-3.6452496E-1,1.5980025E-1,1.100521E0,-1.6570165E0,9.6898586E-1,-4.124937E-1,-1.009724E0,-5.1504654E-1,9.6898586E-1,9.91925E-1,1.638837E0,-4.2485765E-1,-2.87724E-1,-1.874713E-1,-2.7445704E-1,-1.0730148E-1,-2.615869E-1,-1.8478118E-1,6.0111806E-3,1.2883976E-1,-1.0918447E-2,8.390134E-2,1.8919736E-1,2.4176727E-1,1.24581724E-1,2.9122385E-1,3.77984E-1],"split_indices":[1,1,1,1,1,1,1,1,0,1,0,0,0,1,1,0,0,0,0,0,0,0,0,0,0,0,0,0,0,0,0],"split_type":[0,0,0,0,0,0,0,0,0,0,0,0,0,0,0,0,0,0,0,0,0,0,0,0,0,0,0,0,0,0,0],"sum_hessian":[8.5E2,3.84E2,4.66E2,2.9E2,9.4E1,1.99E2,2.67E2,1.49E2,1.41E2,5.9E1,3.5E1,8.4E1,1.15E2,1.1E2,1.57E2,1E1,1.39E2,9.6E1,4.5E1,5.1E1,8E0,8E0,2.7E1,9E0,7.5E1,9.7E1,1.8E1,8.1E1,2.9E1,1.25E2,3.2E1],"tree_param":{"num_deleted":"0","num_feature":"3","num_nodes":"31","size_leaf_vector":"1"}},{"base_weights":[-3.7991258E-3,-3.47121E0,2.8547812E0,-4.0829973E0,-1.5606695E0,9.6354985E-1,4.2554955E0,-3.2579213E-1,-3.7532043E0,-2.077793E0,-6.554452E-1,8.591192E-2,1.5983402E0,3.3289201E0,4.879511E0,-1.9888844E-1,-2.7073509E-1,-1.0098719E-1,-2.476356E-1,-1.7492615E-1,5.6633456E-3,1.2188232E-1,-1.0272006E-2,7.891868E-2,1.7844297E-1,2.2743812E-1,1.1735606E-1,2.73889E-1,3.5599223E-1],"categories":[],"categories_nodes":[],"categories_segments":[],"categories_sizes":[],"default_left":[0,0,0,0,0,0,0,0,0,0,0,0,0,0,0,0,0,0,0,0,0,0,0,0,0,0,0,0,0],"id":23,"left_children":[1,3,5,7,9,11,13,-1,15,17,19,21,23,25,27,-1,-1,-1,-1,-1,-1,-1,-1,-1,-1,-1,-1,-1,-1],"loss_changes":[8.444912E3,4.436333E2,1.2330173E3,1.08879395E2,4.310881E1,1.1128589E2,1.3871387E2,0E0,6.390796E1,4.158551E1,6.128145E1,4.2864872E1,4.125461E1,6.2951782E1,2.5307129E1,0E0,0E0,0E0,0E0,0E0,0E0,0E0,0E0,0E0,0E0,0E0,0E0,0E0,0E0],"parents":[2147483647,0,0,1,1,2,2,3,3,4,4,5,5,6,6,8,8,9,9,10,10,11,11,12,12,13,13,14,14],"right_children":[2,4,6,8,10,12,14,-1,16,18,20,22,24,26,28,-1,-1,-1,-1,-1,-1,-1,-1,-1,-1,-1,-1,-1,-1],"split_conditions":[-2.1195765E-1,-6.3035184E-1,7.1277344E-1,-1.3951871E0,-3.6452496E-1,1.5980025E-1,1.100521E0,-3.2579213E-1,9.6898586E-1,-4.124937E-1,-1.009724E0,-5.1504654E-1,9.6898586E-1,9.91925E-1,1.638837E0,-1.9888844E-1,-2.7073509E-1,-1.0098719E-1,-2.476356E-1,-1.7492615E-1,5.6633456E-3,1.2188232E-1,-1.0272006E-2,7.891868E-2,1.7844297E-1,2.2743812E-1,1.1735606E-1,2.73889E-1,3.5599223E-1],"split_indices":[1,1,1,1,1,1,1,0,0,1,0,0,0,1,1,0,0,0,0,0,0,0,0,0,0,0,0,0,0],"split_type":[0,0,0,0,0,0,0,0,0,0,0,0,0,0,0,0,0,0,0,0,0,0,0,0,0,0,0,0,0],"sum_hessian":[8.5E2,3.84E2,4.66E2,2.9E2,9.4E1,1.99E2,2.67E2,5.4E1,2.36E2,5.9E1,3.5E1,8.4E1,1.15E2,1.1E2,1.57E2,1.53E2,8.3E1,5.1E1,8E0,8E0,2.7E1,9E0,7.5E1,9.7E1,1.8E1,8.1E1,2.9E1,1.25E2,3.2E1],"tree_param":{"num_deleted":"0","num_feature":"3","num_nodes":"29","size_leaf_vector":"1"}},{"base_weights":[-3.5353738E-3,-2.7850173E0,3.1543965E0,-3.6948268E0,-5.2048653E-1,1.8505989E0,4.366932E0,-4.364689E0,-2.958764E0,-1.2345486E0,-1.5754093E-1,9.565801E-1,2.4695895E0,4.038413E0,3.2022703E-1,-3.8391307E-1,-2.5166333E-1,-2.3782603E-1,-1.5343511E-1,-1.9804161E-2,-1.14525E-1,-2.334554E-2,1.01248145E-1,9.180002E-2,-2.8142575E-2,1.6860503E-1,2.9850272E-2,1.0205489E-1,2.5630262E-1],"categories":[],"categories_nodes":[],"categories_segments":[],"categories_sizes":[],"default_left":[0,0,0,0,0,0,0,0,0,0,0,0,0,0,0,0,0,0,0,0,0,0,0,0,0,0,0,0,0],"id":24,"left_children":[1,3,5,7,9,11,13,15,17,19,21,23,25,27,-1,-1,-1,-1,-1,-1,-1,-1,-1,-1,-1,-1,-1,-1,-1],"loss_changes":[7.483739E3,9.313894E2,6.226975E2,1.4634424E2,3.3756207E1,1.0499512E2,4.410376E1,3.1005127E1,5.321643E1,2.6201233E1,3.825147E1,6.69336E1,7.5151184E1,7.889697E1,0E0,0E0,0E0,0E0,0E0,0E0,0E0,0E0,0E0,0E0,0E0,0E0,0E0,0E0,0E0],"parents":[2147483647,0,0,1,1,2,2,3,3,4,4,5,5,6,6,7,7,8,8,9,9,10,10,11,11,12,12,13,13],"right_children":[2,4,6,8,10,12,14,16,18,20,22,24,26,28,-1,-1,-1,-1,-1,-1,-1,-1,-1,-1,-1,-1,-1,-1,-1],"split_conditions":[1.2448991E-1,-4.79117E-1,9.366277E-1,-1.0067734E0,-2.9123935E-1,4.30957E-1,1.5089216E0,-1.6570165E0,-5.1504654E-1,-4.124937E-1,9.6898586E-1,3.6166877E-1,9.133095E-1,-5.1504654E-1,3.2022703E-1,-3.8391307E-1,-2.5166333E-1,-2.3782603E-1,-1.5343511E-1,-1.9804161E-2,-1.14525E-1,-2.334554E-2,1.01248145E-1,9.180002E-2,-2.8142575E-2,1.6860503E-1,2.9850272E-2,1.0205489E-1,2.5630262E-1],"split_indices":[1,1,1,1,1,1,1,1,0,1,0,1,1,0,0,0,0,0,0,0,0,0,0,0,0,0,0,0,0],"split_type":[0,0,0,0,0,0,0,0,0,0,0,0,0,0,0,0,0,0,0,0,0,0,0,0,0,0,0,0,0],"sum_hessian":[8.5E2,4.52E2,3.98E2,3.22E2,1.3E2,1.93E2,2.05E2,1.66E2,1.56E2,4.3E1,8.7E1,8E1,1.13E2,1.57E2,4.8E1,1E1,1.56E2,4.2E1,1.14E2,1.9E1,2.4E1,7.8E1,9E0,5.7E1,2.3E1,9.6E1,1.7E1,1.5E1,1.42E2],"tree_param":{"num_deleted":"0","num_feature":"3","num_nodes":"29","size_leaf_vector":"1"}},{"base_weights":[-3.4909938E-3,-2.6203077E0,2.96749E0,-3.4763165E0,-4.89688E-1,1.7409134E0,4.10821E0,-4.179778E0,-2.849905E0,-1.4454705E0,-2.2765343E-1,2.7942922E0,1.2483983E0,3.5341392E0,4.606331E0,-2.338015E-1,-3.2280064E-1,-1.4795628E-1,-2.207989E-1,-1.8675333E-2,-2.283204E-1,-1.5948872E-1,1.5459537E-4,1.3219199E-1,3.3531255E-1,9.342613E-3,1.5320931E-1,2.4176401E-1,5.2744605E-2,4.1109014E-1,2.4451609E-1],"categories":[],"categories_nodes":[],"categories_segments":[],"categories_sizes":[],"default_left":[0,0,0,0,0,0,0,0,0,0,0,0,0,0,0,0,0,0,0,0,0,0,0,0,0,0,0,0,0,0,0],"id":25,"left_children":[1,3,5,7,9,11,13,15,17,19,21,23,25,27,29,-1,-1,-1,-1,-1,-1,-1,-1,-1,-1,-1,-1,-1,-1,-1,-1],"loss_changes":[6.623886E3,8.2449243E2,5.511211E2,1.3041992E2,3.247963E1,9.715979E1,4.262793E1,3.000122E1,4.6382935E1,7.376036E1,5.820236E1,8.843857E1,1.9069402E2,1.2795264E2,9.965723E1,0E0,0E0,0E0,0E0,0E0,0E0,0E0,0E0,0E0,0E0,0E0,0E0,0E0,0E0,0E0,0E0],"parents":[2147483647,0,0,1,1,2,2,3,3,4,4,5,5,6,6,7,7,8,8,9,9,10,10,11,11,12,12,13,13,14,14],"right_children":[2,4,6,8,10,12,14,16,18,20,22,24,26,28,30,-1,-1,-1,-1,-1,-1,-1,-1,-1,-1,-1,-1,-1,-1,-1,-1],"split_conditions":[1.2448991E-1,-4.79117E-1,9.366277E-1,-1.0134357E0,-3.6452496E-1,-1.009724E0,1.3057207E0,-1.1453497E0,9.6898586E-1,-4.124937E-1,-1.009724E0,9.073134E-1,-2.0369072E-2,1.2617493E0,1.37834E0,-2.338015E-1,-3.2280064E-1,-1.4795628E-1,-2.207989E-1,-1.8675333E-2,-2.283204E-1,-1.5948872E-1,1.5459537E-4,1.3219199E-1,3.3531255E-1,9.342613E-3,1.5320931E-1,2.4176401E-1,5.2744605E-2,4.1109014E-1,2.4451609E-1],"split_indices":[1,1,1,1,1,0,1,1,0,1,0,1,0,1,1,0,0,0,0,0,0,0,0,0,0,0,0,0,0,0,0],"split_type":[0,0,0,0,0,0,0,0,0,0,0,0,0,0,0,0,0,0,0,0,0,0,0,0,0,0,0,0,0,0,0],"sum_hessian":[8.5E2,4.52E2,3.98E2,3.22E2,1.3E2,1.93E2,2.05E2,1.49E2,1.73E2,2.7E1,1.03E2,6E1,1.33E2,9.9E1,1.06E2,1.24E2,2.5E1,1.21E2,5.2E1,1.9E1,8E0,8E0,9.5E1,5.1E1,9E0,7.3E1,6E1,8.3E1,1.6E1,1.8E1,8.8E1],"tree_param":{"num_deleted":"0","num_feature":"3","num_nodes":"31","size_leaf_vector":"1"}},{"base_weights":[-2.9895762E-3,-2.4660294E0,2.7934015E0,-3.2706025E0,-4.6340972E-1,1.6397067E0,3.8663304E0,-3.8657026E0,-2.616766E0,-1.3675636E0,-2.1552779E-1,8.2029736E-1,2.2075353E0,3.285449E-1,3.6735246E0,-2.8157148E-1,-2.1015757E-1,-2.152174E-1,-1.3387467E-1,-1.7610865E-2,-2.1614328E-1,-1.5098266E-1,1.4531851E-4,8.1123814E-2,-2.9938994E-2,1.5053827E-1,2.7629381E-2,8.166163E-2,2.4536136E-1],"categories":[],"categories_nodes":[],"categories_segments":[],"categories_sizes":[],"default_left":[0,0,0,0,0,0,0,0,0,0,0,0,0,0,0,0,0,0,0,0,0,0,0,0,0,0,0,0,0],"id":26,"left_children":[1,3,5,7,9,11,13,15,17,19,21,23,25,-1,27,-1,-1,-1,-1,-1,-1,-1,-1,-1,-1,-1,-1,-1,-1],"loss_changes":[5.868255E3,7.283828E2,4.8755566E2,1.1556299E2,2.9065422E1,8.845422E1,4.3807617E1,3.371631E1,5.071924E1,6.615137E1,5.2158947E1,5.7500107E1,5.8879578E1,0E0,1.7425513E2,0E0,0E0,0E0,0E0,0E0,0E0,0E0,0E0,0E0,0E0,0E0,0E0,0E0,0E0],"parents":[2147483647,0,0,1,1,2,2,3,3,4,4,5,5,6,6,7,7,8,8,9,9,10,10,11,11,12,12,14,14],"right_children":[2,4,6,8,10,12,14,16,18,20,22,24,26,-1,28,-1,-1,-1,-1,-1,-1,-1,-1,-1,-1,-1,-1,-1,-1],"split_conditions":[1.2448991E-1,-4.79117E-1,9.366277E-1,-1.0067734E0,-3.6452496E-1,4.30957E-1,9.91925E-1,-1.4504844E0,-5.1504654E-1,-4.124937E-1,-1.009724E0,3.6166877E-1,9.133095E-1,3.285449E-1,1.100521E0,-2.8157148E-1,-2.1015757E-1,-2.152174E-1,-1.3387467E-1,-1.7610865E-2,-2.1614328E-1,-1.5098266E-1,1.4531851E-4,8.1123814E-2,-2.9938994E-2,1.5053827E-1,2.7629381E-2,8.166163E-2,2.4536136E-1],"split_indices":[1,1,1,1,1,1,1,1,0,1,0,1,1,0,1,0,0,0,0,0,0,0,0,0,0,0,0,0,0],"split_type":[0,0,0,0,0,0,0,0,0,0,0,0,0,0,0,0,0,0,0,0,0,0,0,0,0,0,0,0,0],"sum_hessian":[8.5E2,4.52E2,3.98E2,3.22E2,1.3E2,1.93E2,2.05E2,1.66E2,1.56E2,2.7E1,1.03E2,8E1,1.13E2,1.9E1,1.86E2,4.7E1,1.19E2,4.2E1,1.14E2,1.9E1,8E0,8E0,9.5E1,5.7E1,2.3E1,9.6E1,1.7E1,2.9E1,1.57E2],"tree_param":{"num_deleted":"0","num_feature":"3","num_nodes":"29","size_leaf_vector":"1"}},{"base_weights":[-3.2103423E-3,-2.3207726E0,2.628015E0,-3.182826E0,-6.5915275E-1,1.5425059E0,3.637533E0,-4.3419538E0,-2.9085028E0,-1.5397552E0,-2.0404622E-1,2.5044358E0,1.0931013E0,3.3956962E0,2.8814667E-1,-3.348611E-1,-2.3655501E-1,-1.5210937E-1,-2.1050149E-1,-6.7886226E-2,-2.0461568E-1,-1.429303E-1,1.3671159E-4,1.16835944E-1,3.0907658E-1,5.063018E-3,1.379323E-1,3.0981788E-1,1.8874006E-1],"categories":[],"categories_nodes":[],"categories_segments":[],"categories_sizes":[],"default_left":[0,0,0,0,0,0,0,0,0,0,0,0,0,0,0,0,0,0,0,0,0,0,0,0,0,0,0,0,0],"id":27,"left_children":[1,3,5,7,9,11,13,15,17,19,21,23,25,27,-1,-1,-1,-1,-1,-1,-1,-1,-1,-1,-1,-1,-1,-1,-1],"loss_changes":[5.195521E3,6.467815E2,4.3162964E2,8.212793E1,6.220562E1,8.112778E1,4.1726562E1,5.2128906E0,4.5750732E1,3.6620857E1,4.6743153E1,7.992828E1,1.6278781E2,6.0670776E1,0E0,0E0,0E0,0E0,0E0,0E0,0E0,0E0,0E0,0E0,0E0,0E0,0E0,0E0,0E0],"parents":[2147483647,0,0,1,1,2,2,3,3,4,4,5,5,6,6,7,7,8,8,9,9,10,10,11,11,12,12,13,13],"right_children":[2,4,6,8,10,12,14,16,18,20,22,24,26,28,-1,-1,-1,-1,-1,-1,-1,-1,-1,-1,-1,-1,-1,-1,-1],"split_conditions":[1.2448991E-1,-5.870467E-1,9.366277E-1,-1.3951871E0,-3.6452496E-1,-1.009724E0,1.638837E0,-1.6570165E0,9.6898586E-1,-4.124937E-1,-1.009724E0,9.073134E-1,-2.0369072E-2,9.91925E-1,2.8814667E-1,-3.348611E-1,-2.3655501E-1,-1.5210937E-1,-2.1050149E-1,-6.7886226E-2,-2.0461568E-1,-1.429303E-1,1.3671159E-4,1.16835944E-1,3.0907658E-1,5.063018E-3,1.379323E-1,3.0981788E-1,1.8874006E-1],"split_indices":[1,1,1,1,1,0,1,1,0,1,0,1,0,1,0,0,0,0,0,0,0,0,0,0,0,0,0,0,0],"split_type":[0,0,0,0,0,0,0,0,0,0,0,0,0,0,0,0,0,0,0,0,0,0,0,0,0,0,0,0,0],"sum_hessian":[8.5E2,4.52E2,3.98E2,2.97E2,1.55E2,1.93E2,2.05E2,5.4E1,2.43E2,5.2E1,1.03E2,6E1,1.33E2,1.73E2,3.2E1,1E1,4.4E1,1.53E2,9E1,4.4E1,8E0,8E0,9.5E1,5.1E1,9E0,7.3E1,6E1,1.9E1,1.54E2],"tree_param":{"num_deleted":"0","num_feature":"3","num_nodes":"29","size_leaf_vector":"1"}},{"base_weights":[-3.0104092E-3,-2.1845052E0,2.4737318E0,-2.8984184E0,-4.0757E-1,1.0545325E0,3.16351E0,-3.498728E0,-2.3642526E0,-1.4391629E0,-2.3050955E-1,5.610823E-1,1.8272461E0,2.6731846E0,3.876306E0,-1.9326696E-1,-2.819301E-1,-1.9474803E-1,-1.2355024E-1,-3.8443618E-2,-1.3530731E-1,-8.75109E-2,1.2855767E-4,6.396162E-2,-1.05924346E-1,9.00495E-2,1.8092938E-1,1.7502788E-1,2.5252074E-2,3.6304763E-1,2.0211212E-1],"categories":[],"categories_nodes":[],"categories_segments":[],"categories_sizes":[],"default_left":[0,0,0,0,0,0,0,0,0,0,0,0,0,0,0,0,0,0,0,0,0,0,0,0,0,0,0,0,0,0,0],"id":28,"left_children":[1,3,5,7,9,11,13,15,17,19,21,23,25,27,29,-1,-1,-1,-1,-1,-1,-1,-1,-1,-1,-1,-1,-1,-1,-1,-1],"loss_changes":[4.6033564E3,5.7348413E2,3.8725806E2,9.530322E1,2.3595974E1,4.9305786E1,8.330444E1,3.483911E1,4.011261E1,1.0933411E1,3.2287018E1,9.821129E1,1.5255539E1,8.778235E1,9.776074E1,0E0,0E0,0E0,0E0,0E0,0E0,0E0,0E0,0E0,0E0,0E0,0E0,0E0,0E0,0E0,0E0],"parents":[2147483647,0,0,1,1,2,2,3,3,4,4,5,5,6,6,7,7,8,8,9,9,10,10,11,11,12,12,13,13,14,14],"right_children":[2,4,6,8,10,12,14,16,18,20,22,24,26,28,30,-1,-1,-1,-1,-1,-1,-1,-1,-1,-1,-1,-1,-1,-1,-1,-1],"split_conditions":[1.2448991E-1,-4.79117E-1,7.1277344E-1,-1.0134357E0,-1.009724E0,-2.0369072E-2,1.3057207E0,-1.1453497E0,-5.1504654E-1,-4.3914303E-1,-3.6452496E-1,-5.1504654E-1,6.5947485E-1,1.2617493E0,1.37834E0,-1.9326696E-1,-2.819301E-1,-1.9474803E-1,-1.2355024E-1,-3.8443618E-2,-1.3530731E-1,-8.75109E-2,1.2855767E-4,6.396162E-2,-1.05924346E-1,9.00495E-2,1.8092938E-1,1.7502788E-1,2.5252074E-2,3.6304763E-1,2.0211212E-1],"split_indices":[1,1,1,1,0,0,1,1,0,1,1,0,1,1,1,0,0,0,0,0,0,0,0,0,0,0,0,0,0,0,0],"split_type":[0,0,0,0,0,0,0,0,0,0,0,0,0,0,0,0,0,0,0,0,0,0,0,0,0,0,0,0,0,0,0],"sum_hessian":[8.5E2,4.52E2,3.98E2,3.22E2,1.3E2,1.31E2,2.67E2,1.49E2,1.73E2,1.8E1,1.12E2,8.1E1,5E1,1.61E2,1.06E2,1.24E2,2.5E1,4.2E1,1.31E2,1E1,8E0,1.7E1,9.5E1,6.7E1,1.4E1,4.1E1,9E0,1.45E2,1.6E1,1.8E1,8.8E1],"tree_param":{"num_deleted":"0","num_feature":"3","num_nodes":"31","size_leaf_vector":"1"}},{"base_weights":[-2.90061E-3,-2.0557628E0,2.3277998E0,-2.821674E0,-5.7949793E-1,1.3550804E0,3.2325559E0,-3.9020724E0,-2.5665774E0,-1.3468193E0,-1.8288705E-1,2.2345107E0,9.4463027E-1,3.508447E0,2.3480244E0,-3.0605412E-1,-2.1133874E-1,-1.3269538E-1,-1.8834731E-1,-5.736812E-2,-1.8903553E-1,-1.2809092E-1,1.208663E-4,1.0286464E-1,2.8293473E-1,1.3750572E-3,1.2283726E-1,1.2225165E-1,2.2049294E-1,2.5454038E-1,1.1117284E-1],"categories":[],"categories_nodes":[],"categories_segments":[],"categories_sizes":[],"default_left":[0,0,0,0,0,0,0,0,0,0,0,0,0,0,0,0,0,0,0,0,0,0,0,0,0,0,0,0,0,0,0],"id":29,"left_children":[1,3,5,7,9,11,13,15,17,19,21,23,25,27,29,-1,-1,-1,-1,-1,-1,-1,-1,-1,-1,-1,-1,-1,-1,-1,-1],"loss_changes":[4.076486E3,5.1056653E2,3.4676904E2,7.211548E1,4.722886E1,6.7915924E1,4.2033203E1,7.072693E0,4.264978E1,3.4336975E1,3.7540043E1,7.063016E1,1.3614174E2,3.0458252E1,4.09133E1,0E0,0E0,0E0,0E0,0E0,0E0,0E0,0E0,0E0,0E0,0E0,0E0,0E0,0E0,0E0,0E0],"parents":[2147483647,0,0,1,1,2,2,3,3,4,4,5,5,6,6,7,7,8,8,9,9,10,10,11,11,12,12,13,13,14,14],"right_children":[2,4,6,8,10,12,14,16,18,20,22,24,26,28,30,-1,-1,-1,-1,-1,-1,-1,-1,-1,-1,-1,-1,-1,-1,-1,-1],"split_conditions":[1.2448991E-1,-5.870467E-1,9.366277E-1,-1.3951871E0,-3.6452496E-1,-1.009724E0,1.4636633E0,-1.6570165E0,9.6898586E-1,-4.124937E-1,-1.009724E0,9.073134E-1,-2.0369072E-2,-1.009724E0,9.6660817E-1,-3.0605412E-1,-2.1133874E-1,-1.3269538E-1,-1.8834731E-1,-5.736812E-2,-1.8903553E-1,-1.2809092E-1,1.208663E-4,1.0286464E-1,2.8293473E-1,1.3750572E-3,1.2283726E-1,1.2225165E-1,2.2049294E-1,2.5454038E-1,1.1117284E-1],"split_indices":[1,1,1,1,1,0,0,1,0,1,0,1,0,0,1,0,0,0,0,0,0,0,0,0,0,0,0,0,0,0,0],"split_type":[0,0,0,0,0,0,0,0,0,0,0,0,0,0,0,0,0,0,0,0,0,0,0,0,0,0,0,0,0,0,0],"sum_hessian":[8.5E2,4.52E2,3.98E2,2.97E2,1.55E2,1.93E2,2.05E2,5.4E1,2.43E2,5.2E1,1.03E2,6E1,1.33E2,1.54E2,5.1E1,1E1,4.4E1,1.53E2,9E1,4.4E1,8E0,8E0,9.5E1,5.1E1,9E0,7.3E1,6E1,1.7E1,1.37E2,9E0,4.2E1],"tree_param":{"num_deleted":"0","num_feature":"3","num_nodes":"31","size_leaf_vector":"1"}},{"base_weights":[-2.7198175E-3,-1.9350945E0,2.1911862E0,-2.6819277E0,-5.8991915E-1,9.2640203E-1,2.8059633E0,-3.6773558E0,-2.4396052E0,-1.3024954E0,-1.7314519E-1,4.9460718E-1,1.6024956E0,2.2290018E0,3.3175497E0,-2.8936028E-1,-1.9894023E-1,-1.24785304E-1,-1.8421723E-1,-5.9200007E-2,-1.7895365E-1,-2.1451155E-2,9.574337E-2,5.7860453E-2,-1.00069575E-1,7.758042E-2,1.645259E-1,2.0483053E-1,1.1380631E-1,3.025457E-1,1.8228939E-1],"categories":[],"categories_nodes":[],"categories_segments":[],"categories_sizes":[],"default_left":[0,0,0,0,0,0,0,0,0,0,0,0,0,0,0,0,0,0,0,0,0,0,0,0,0,0,0,0,0,0,0],"id":30,"left_children":[1,3,5,7,9,11,13,15,17,19,21,23,25,27,29,-1,-1,-1,-1,-1,-1,-1,-1,-1,-1,-1,-1,-1,-1,-1,-1],"loss_changes":[3.6120107E3,4.535116E2,3.0764722E2,6.1222168E1,4.8182747E1,3.7742645E1,7.170972E1,6.7929688E0,4.7401978E1,2.8893967E1,3.4488377E1,8.490134E1,1.4441849E1,4.43042E1,5.2149048E1,0E0,0E0,0E0,0E0,0E0,0E0,0E0,0E0,0E0,0E0,0E0,0E0,0E0,0E0,0E0,0E0],"parents":[2147483647,0,0,1,1,2,2,3,3,4,4,5,5,6,6,7,7,8,8,9,9,10,10,11,11,12,12,13,13,14,14],"right_children":[2,4,6,8,10,12,14,16,18,20,22,24,26,28,30,-1,-1,-1,-1,-1,-1,-1,-1,-1,-1,-1,-1,-1,-1,-1,-1],"split_conditions":[1.2448991E-1,-6.3035184E-1,7.1277344E-1,-1.3951871E0,-3.6452496E-1,-2.0369072E-2,1.2271051E0,-1.6570165E0,9.6898586E-1,-4.124937E-1,9.6898586E-1,-5.1504654E-1,6.5947485E-1,8.473525E-1,1.2617493E0,-2.8936028E-1,-1.9894023E-1,-1.24785304E-1,-1.8421723E-1,-5.9200007E-2,-1.7895365E-1,-2.1451155E-2,9.574337E-2,5.7860453E-2,-1.00069575E-1,7.758042E-2,1.645259E-1,2.0483053E-1,1.1380631E-1,3.025457E-1,1.8228939E-1],"split_indices":[1,1,1,1,1,0,1,1,0,1,0,0,1,1,1,0,0,0,0,0,0,0,0,0,0,0,0,0,0,0,0],"split_type":[0,0,0,0,0,0,0,0,0,0,0,0,0,0,0,0,0,0,0,0,0,0,0,0,0,0,0,0,0,0,0],"sum_hessian":[8.5E2,4.52E2,3.98E2,2.9E2,1.62E2,1.31E2,2.67E2,5.4E1,2.36E2,5.9E1,1.03E2,8.1E1,5E1,1.28E2,1.39E2,1E1,4.4E1,1.53E2,8.3E1,5.1E1,8E0,9.4E1,9E0,6.7E1,1.4E1,4.1E1,9E0,2.6E1,1.02E2,1.7E1,1.22E2],"tree_param":{"num_deleted":"0","num_feature":"3","num_nodes":"31","size_leaf_vector":"1"}},{"base_weights":[-2.5073914E-3,-1.8211111E0,2.0622294E0,-2.4205585E0,-3.2918254E-1,1.1910455E0,2.8726537E0,-2.888773E0,-1.9071039E0,-2.2229095E-1,-1.16691254E-1,1.9938776E0,8.166887E-1,2.6220715E-1,2.6971354E0,-1.261402E-1,-1.9241327E-1,-1.7001493E-1,-9.2645876E-2,-2.2257183E-2,9.057314E-2,9.004781E-2,2.6151058E-1,-1.1093995E-3,1.0898808E-1,4.0591408E-2,1.8382351E-1],"categories":[],"categories_nodes":[],"categories_segments":[],"categories_sizes":[],"default_left":[0,0,0,0,0,0,0,0,0,0,0,0,0,0,0,0,0,0,0,0,0,0,0,0,0,0,0],"id":31,"left_children":[1,3,5,7,9,11,13,15,17,19,-1,21,23,-1,25,-1,-1,-1,-1,-1,-1,-1,-1,-1,-1,-1,-1],"loss_changes":[3.1992075E3,4.0433594E2,2.7828406E2,7.214221E1,2.21916E1,5.667746E1,4.235681E1,3.5037598E1,4.842639E1,3.2484947E1,0E0,6.4582E1,1.1192282E2,0E0,1.3644482E2,0E0,0E0,0E0,0E0,0E0,0E0,0E0,0E0,0E0,0E0,0E0,0E0],"parents":[2147483647,0,0,1,1,2,2,3,3,4,4,5,5,6,6,7,7,8,8,9,9,11,11,12,12,14,14],"right_children":[2,4,6,8,10,12,14,16,18,20,-1,22,24,-1,26,-1,-1,-1,-1,-1,-1,-1,-1,-1,-1,-1,-1],"split_conditions":[1.2448991E-1,-4.79117E-1,9.366277E-1,-1.0067734E0,1.2182498E-1,-1.009724E0,9.91925E-1,-2.0369072E-2,-5.1504654E-1,2.988485E-2,-1.16691254E-1,9.073134E-1,-2.0369072E-2,2.6220715E-1,1.100521E0,-1.261402E-1,-1.9241327E-1,-1.7001493E-1,-9.2645876E-2,-2.2257183E-2,9.057314E-2,9.004781E-2,2.6151058E-1,-1.1093995E-3,1.0898808E-1,4.0591408E-2,1.8382351E-1],"split_indices":[1,1,1,1,1,0,1,0,0,1,0,1,0,0,1,0,0,0,0,0,0,0,0,0,0,0,0],"split_type":[0,0,0,0,0,0,0,0,0,0,0,0,0,0,0,0,0,0,0,0,0,0,0,0,0,0,0],"sum_hessian":[8.5E2,4.52E2,3.98E2,3.22E2,1.3E2,1.93E2,2.05E2,1.66E2,1.56E2,1.23E2,7E0,6E1,1.33E2,1.9E1,1.86E2,5E1,1.16E2,4.2E1,1.14E2,1.14E2,9E0,5.1E1,9E0,7.3E1,6E1,2.9E1,1.57E2],"tree_param":{"num_deleted":"0","num_feature":"3","num_nodes":"27","size_leaf_vector":"1"}},{"base_weights":[-1.984713E-3,-2.010412E0,1.6537894E0,-2.3771262E0,-8.6594653E-1,4.2556822E-1,2.4296021E0,-3.4054458E0,-2.1496513E0,-1.1572827E0,-3.5633224E-1,1.1220251E0,1.0049637E-2,2.017798E0,3.0996504E0,-2.1993665E-1,-1.0704305E-1,-1.4799863E-1,-6.35038E-2,-5.1004145E-2,-1.6822246E-1,-5.6514364E-2,9.030273E-2,1.24812394E-1,6.1596744E-3,-8.536225E-2,2.4213172E-2,1.3384339E-1,-9.299926E-3,3.0906734E-1,1.5761207E-1],"categories":[],"categories_nodes":[],"categories_segments":[],"categories_sizes":[],"default_left":[0,0,0,0,0,0,0,0,0,0,0,0,0,0,0,0,0,0,0,0,0,0,0,0,0,0,0,0,0,0,0],"id":32,"left_children":[1,3,5,7,9,11,13,15,17,19,21,23,25,27,29,-1,-1,-1,-1,-1,-1,-1,-1,-1,-1,-1,-1,-1,-1,-1,-1],"loss_changes":[2.833327E3,1.5952283E2,4.4395605E2,6.0749146E1,1.3692177E1,5.2657852E1,7.2661255E1,1.4973755E1,8.07561E1,2.7964905E1,4.0656685E1,6.620445E1,6.541036E1,8.362164E1,9.0247925E1,0E0,0E0,0E0,0E0,0E0,0E0,0E0,0E0,0E0,0E0,0E0,0E0,0E0,0E0,0E0,0E0],"parents":[2147483647,0,0,1,1,2,2,3,3,4,4,5,5,6,6,7,7,8,8,9,9,10,10,11,11,12,12,13,13,14,14],"right_children":[2,4,6,8,10,12,14,16,18,20,22,24,26,28,30,-1,-1,-1,-1,-1,-1,-1,-1,-1,-1,-1,-1,-1,-1,-1,-1],"split_conditions":[-2.1195765E-1,-6.3035184E-1,6.5947485E-1,-5.1504654E-1,-3.6452496E-1,-5.1504654E-1,1.3057207E0,-7.88249E-1,-8.4554505E-1,-4.124937E-1,-2.0369072E-2,3.6166877E-1,-2.0369072E-2,1.2617493E0,1.37834E0,-2.1993665E-1,-1.0704305E-1,-1.4799863E-1,-6.35038E-2,-5.1004145E-2,-1.6822246E-1,-5.6514364E-2,9.030273E-2,1.24812394E-1,6.1596744E-3,-8.536225E-2,2.4213172E-2,1.3384339E-1,-9.299926E-3,3.0906734E-1,1.5761207E-1],"split_indices":[1,1,1,0,1,0,1,1,1,1,0,1,0,1,1,0,0,0,0,0,0,0,0,0,0,0,0,0,0,0,0],"split_type":[0,0,0,0,0,0,0,0,0,0,0,0,0,0,0,0,0,0,0,0,0,0,0,0,0,0,0,0,0,0,0],"sum_hessian":[8.5E2,3.84E2,4.66E2,2.9E2,9.4E1,1.81E2,2.85E2,5E1,2.4E2,5.9E1,3.5E1,6.7E1,1.14E2,1.79E2,1.06E2,4.2E1,8E0,1.85E2,5.5E1,5.1E1,8E0,2.7E1,8E0,3.4E1,3.3E1,2.4E1,9E1,1.63E2,1.6E1,1.8E1,8.8E1],"tree_param":{"num_deleted":"0","num_feature":"3","num_nodes":"31","size_leaf_vector":"1"}},{"base_weights":[-1.9392435E-3,-1.6155286E0,1.8300354E0,-2.1452413E0,-2.9711112E-1,1.0506696E0,2.5551178E0,-3.129619E0,-1.9359995E0,-1.9362968E-1,-1.1183607E-1,1.7695683E0,7.1556884E-1,2.2761142E0,2.04157E-1,-2.5470006E-1,-1.6724536E-1,-9.734269E-2,-1.5189767E-1,-1.9863937E-2,8.437479E-2,7.836546E-2,2.4016161E-1,-3.9269533E-3,9.907816E-2,1.1520939E-2,1.4960298E-1],"categories":[],"categories_nodes":[],"categories_segments":[],"categories_sizes":[],"default_left":[0,0,0,0,0,0,0,0,0,0,0,0,0,0,0,0,0,0,0,0,0,0,0,0,0,0,0],"id":33,"left_children":[1,3,5,7,9,11,13,15,17,19,-1,21,23,25,-1,-1,-1,-1,-1,-1,-1,-1,-1,-1,-1,-1,-1],"loss_changes":[2.5185593E3,3.1572974E2,2.2279211E2,6.0470337E1,2.0879055E1,4.5469025E1,4.0965088E1,9.15979E0,4.6142395E1,2.7730743E1,0E0,5.7907288E1,9.803864E1,7.1065186E1,0E0,0E0,0E0,0E0,0E0,0E0,0E0,0E0,0E0,0E0,0E0,0E0,0E0],"parents":[2147483647,0,0,1,1,2,2,3,3,4,4,5,5,6,6,7,7,8,8,9,9,11,11,12,12,13,13],"right_children":[2,4,6,8,10,12,14,16,18,20,-1,22,24,26,-1,-1,-1,-1,-1,-1,-1,-1,-1,-1,-1,-1,-1],"split_conditions":[1.2448991E-1,-4.79117E-1,9.366277E-1,-1.3951871E0,1.2182498E-1,-1.009724E0,1.5089216E0,-1.6570165E0,9.6898586E-1,2.988485E-2,-1.1183607E-1,9.073134E-1,-2.0369072E-2,-5.1504654E-1,2.04157E-1,-2.5470006E-1,-1.6724536E-1,-9.734269E-2,-1.5189767E-1,-1.9863937E-2,8.437479E-2,7.836546E-2,2.4016161E-1,-3.9269533E-3,9.907816E-2,1.1520939E-2,1.4960298E-1],"split_indices":[1,1,1,1,1,0,1,1,0,1,0,1,0,0,0,0,0,0,0,0,0,0,0,0,0,0,0],"split_type":[0,0,0,0,0,0,0,0,0,0,0,0,0,0,0,0,0,0,0,0,0,0,0,0,0,0,0],"sum_hessian":[8.5E2,4.52E2,3.98E2,3.22E2,1.3E2,1.93E2,2.05E2,5.4E1,2.68E2,1.23E2,7E0,6E1,1.33E2,1.57E2,4.8E1,1E1,4.4E1,1.78E2,9E1,1.14E2,9E0,5.1E1,9E0,7.3E1,6E1,1.5E1,1.42E2],"tree_param":{"num_deleted":"0","num_feature":"3","num_nodes":"27","size_leaf_vector":"1"}},{"base_weights":[-1.752404E-3,-1.5201828E0,1.7221843E0,-2.107803E0,-4.6179214E-1,9.897609E-1,2.4035823E0,-3.0716474E0,-1.8950901E0,-1.0242797E0,-1.3283975E-1,4.32856E-1,1.3767743E0,2.3110484E-1,2.2358449E0,-1.9846416E-1,-9.614247E-2,-1.3169582E-1,-5.1921107E-2,-4.3532424E-2,-1.5819122E-1,-1.1485473E-1,2.1330474E-3,5.542194E-2,-4.6283014E-2,1.0678258E-1,2.9407974E-2,2.1797119E-2,1.546346E-1],"categories":[],"categories_nodes":[],"categories_segments":[],"categories_sizes":[],"default_left":[0,0,0,0,0,0,0,0,0,0,0,0,0,0,0,0,0,0,0,0,0,0,0,0,0,0,0,0,0],"id":34,"left_children":[1,3,5,7,9,11,13,15,17,19,21,23,25,-1,27,-1,-1,-1,-1,-1,-1,-1,-1,-1,-1,-1,-1,-1,-1],"loss_changes":[2.230262E3,2.8076172E2,1.9675085E2,5.3840454E1,3.0024094E1,4.1216812E1,4.1427734E1,1.2390564E1,7.251105E1,2.6985481E1,3.1265131E1,4.8591026E1,3.985524E1,0E0,1.18610596E2,0E0,0E0,0E0,0E0,0E0,0E0,0E0,0E0,0E0,0E0,0E0,0E0,0E0,0E0],"parents":[2147483647,0,0,1,1,2,2,3,3,4,4,5,5,6,6,7,7,8,8,9,9,10,10,11,11,12,12,14,14],"right_children":[2,4,6,8,10,12,14,16,18,20,22,24,26,-1,28,-1,-1,-1,-1,-1,-1,-1,-1,-1,-1,-1,-1,-1,-1],"split_conditions":[1.2448991E-1,-6.3035184E-1,9.366277E-1,-5.1504654E-1,-3.6452496E-1,4.30957E-1,9.91925E-1,-7.88249E-1,-8.4554505E-1,-4.124937E-1,-1.009724E0,3.6166877E-1,8.473525E-1,2.3110484E-1,1.100521E0,-1.9846416E-1,-9.614247E-2,-1.3169582E-1,-5.1921107E-2,-4.3532424E-2,-1.5819122E-1,-1.1485473E-1,2.1330474E-3,5.542194E-2,-4.6283014E-2,1.0678258E-1,2.9407974E-2,2.1797119E-2,1.546346E-1],"split_indices":[1,1,1,0,1,1,1,1,1,1,0,1,1,0,1,0,0,0,0,0,0,0,0,0,0,0,0,0,0],"split_type":[0,0,0,0,0,0,0,0,0,0,0,0,0,0,0,0,0,0,0,0,0,0,0,0,0,0,0,0,0],"sum_hessian":[8.5E2,4.52E2,3.98E2,2.9E2,1.62E2,1.93E2,2.05E2,5E1,2.4E2,5.9E1,1.03E2,8E1,1.13E2,1.9E1,1.86E2,4.2E1,8E0,1.85E2,5.5E1,5.1E1,8E0,8E0,9.5E1,5.7E1,2.3E1,7.7E1,3.6E1,2.9E1,1.57E2],"tree_param":{"num_deleted":"0","num_feature":"3","num_nodes":"29","size_leaf_vector":"1"}},{"base_weights":[-1.9290053E-3,-1.4307212E0,1.6202383E0,-1.9018326E0,-2.5820416E-1,6.6473675E-1,2.0848129E0,-2.8761585E0,-1.7254939E0,-1.5871929E-1,-1.0607666E-1,3.2280812E-1,1.2014704E0,1.8601081E0,1.8306863E-1,-2.2998202E-1,-1.5140878E-1,-8.641697E-2,-1.3736948E-1,-1.7199187E-2,7.970348E-2,4.3762095E-2,-9.25071E-2,5.6247074E-2,1.3141221E-1,6.5465726E-2,1.2772189E-1],"categories":[],"categories_nodes":[],"categories_segments":[],"categories_sizes":[],"default_left":[0,0,0,0,0,0,0,0,0,0,0,0,0,0,0,0,0,0,0,0,0,0,0,0,0,0,0],"id":35,"left_children":[1,3,5,7,9,11,13,15,17,19,-1,21,23,25,-1,-1,-1,-1,-1,-1,-1,-1,-1,-1,-1,-1,-1],"loss_changes":[1.9747148E3,2.497398E2,1.7573096E2,5.0532227E1,1.9395111E1,2.3837402E1,5.2517822E1,6.5259705E0,4.1099365E1,2.3971998E1,0E0,6.3286217E1,1.1260063E1,4.3118286E1,0E0,0E0,0E0,0E0,0E0,0E0,0E0,0E0,0E0,0E0,0E0,0E0,0E0],"parents":[2147483647,0,0,1,1,2,2,3,3,4,4,5,5,6,6,7,7,8,8,9,9,11,11,12,12,13,13],"right_children":[2,4,6,8,10,12,14,16,18,20,-1,22,24,26,-1,-1,-1,-1,-1,-1,-1,-1,-1,-1,-1,-1,-1],"split_conditions":[1.2448991E-1,-4.79117E-1,7.1277344E-1,-1.4504844E0,1.2182498E-1,-2.0369072E-2,1.5089216E0,-5.1504654E-1,9.6898586E-1,2.988485E-2,-1.0607666E-1,-5.1504654E-1,6.5947485E-1,-5.1504654E-1,1.8306863E-1,-2.2998202E-1,-1.5140878E-1,-8.641697E-2,-1.3736948E-1,-1.7199187E-2,7.970348E-2,4.3762095E-2,-9.25071E-2,5.6247074E-2,1.3141221E-1,6.5465726E-2,1.2772189E-1],"split_indices":[1,1,1,1,1,0,1,0,0,1,0,0,1,0,0,0,0,0,0,0,0,0,0,0,0,0,0],"split_type":[0,0,0,0,0,0,0,0,0,0,0,0,0,0,0,0,0,0,0,0,0,0,0,0,0,0,0],"sum_hessian":[8.5E2,4.52E2,3.98E2,3.22E2,1.3E2,1.31E2,2.67E2,4.7E1,2.75E2,1.23E2,7E0,8.1E1,5E1,2.19E2,4.8E1,1E1,3.7E1,1.85E2,9E1,1.14E2,9E0,6.7E1,1.4E1,4.1E1,9E0,5.8E1,1.61E2],"tree_param":{"num_deleted":"0","num_feature":"3","num_nodes":"27","size_leaf_vector":"1"}},{"base_weights":[-1.97055E-3,-1.5796547E0,1.298694E0,-2.0039296E0,-9.507465E-1,3.2803568E-1,1.9118448E0,-1.8554202E-1,-1.7982924E0,1.0266411E-1,-1.1434623E0,9.5858735E-1,-4.7664776E-2,1.7061715E0,2.8718128E0,-1.17131166E-1,7.463747E-2,-1.175527E-1,-4.057941E-2,1.1173679E-1,7.3107553E-6,-7.8229204E-2,1.7877398E-2,5.387988E-2,1.2105437E-1,1.3484593E-1,1.8638632E-1],"categories":[],"categories_nodes":[],"categories_segments":[],"categories_sizes":[],"default_left":[0,0,0,0,0,0,0,0,0,0,0,0,0,0,0,0,0,0,0,0,0,0,0,0,0,0,0],"id":36,"left_children":[1,3,5,7,9,11,13,-1,15,-1,17,19,21,23,25,-1,-1,-1,-1,-1,-1,-1,-1,-1,-1,-1,-1],"loss_changes":[1.7483358E3,1.0082434E2,2.7731262E2,4.569452E1,8.249342E1,4.3161232E1,5.1567993E1,0E0,9.372406E1,0E0,5.469194E1,5.889853E1,5.031622E1,5.8084717E1,1.9680786E-1,0E0,0E0,0E0,0E0,0E0,0E0,0E0,0E0,0E0,0E0,0E0,0E0],"parents":[2147483647,0,0,1,1,2,2,3,3,4,4,5,5,6,6,8,8,10,10,11,11,12,12,13,13,14,14],"right_children":[2,4,6,8,10,12,14,-1,16,-1,18,20,22,24,26,-1,-1,-1,-1,-1,-1,-1,-1,-1,-1,-1,-1],"split_conditions":[-2.1195765E-1,-8.122334E-1,6.5947485E-1,-5.1504654E-1,-7.9757625E-1,-5.1504654E-1,1.5089216E0,-1.8554202E-1,-8.4554505E-1,1.0266411E-1,-6.3035184E-1,3.6166877E-1,-2.0369072E-2,-5.1504654E-1,1.638837E0,-1.17131166E-1,7.463747E-2,-1.175527E-1,-4.057941E-2,1.1173679E-1,7.3107553E-6,-7.8229204E-2,1.7877398E-2,5.387988E-2,1.2105437E-1,1.3484593E-1,1.8638632E-1],"split_indices":[1,1,1,0,1,0,1,0,1,0,1,1,0,0,1,0,0,0,0,0,0,0,0,0,0,0,0],"split_type":[0,0,0,0,0,0,0,0,0,0,0,0,0,0,0,0,0,0,0,0,0,0,0,0,0,0,0],"sum_hessian":[8.5E2,3.84E2,4.66E2,2.28E2,1.56E2,1.81E2,2.85E2,3.4E1,1.94E2,1E1,1.46E2,6.7E1,1.14E2,2.37E2,4.8E1,1.85E2,9E0,5.2E1,9.4E1,3.4E1,3.3E1,2.4E1,9E1,6.7E1,1.7E2,1.6E1,3.2E1],"tree_param":{"num_deleted":"0","num_feature":"3","num_nodes":"27","size_leaf_vector":"1"}},{"base_weights":[-1.5423268E-3,-1.2688112E0,1.4372406E0,-1.6852922E0,-2.322299E-1,5.9555775E-1,1.8464379E0,-2.5825915E0,-1.523134E0,-1.3625774E-1,-1.0144618E-1,2.762184E-1,1.0973277E0,1.6465838E0,2.70606E0,-2.0731705E-1,-1.3572042E-1,-7.562114E-2,-1.2261062E-1,-1.5287818E-2,7.443416E-2,3.828212E-2,-8.294598E-2,5.190556E-2,1.1777893E-1,5.8426525E-2,1.12887286E-1,1.2723112E-1,1.7554204E-1],"categories":[],"categories_nodes":[],"categories_segments":[],"categories_sizes":[],"default_left":[0,0,0,0,0,0,0,0,0,0,0,0,0,0,0,0,0,0,0,0,0,0,0,0,0,0,0,0,0],"id":37,"left_children":[1,3,5,7,9,11,13,15,17,19,-1,21,23,25,27,-1,-1,-1,-1,-1,-1,-1,-1,-1,-1,-1,-1,-1,-1],"loss_changes":[1.553473E3,1.9517615E2,1.3632166E2,4.3064392E1,1.81069E1,2.08479E1,4.1586365E1,5.613159E0,3.5166138E1,2.0553888E1,0E0,5.0092556E1,8.554638E0,3.2933044E1,9.7839355E-2,0E0,0E0,0E0,0E0,0E0,0E0,0E0,0E0,0E0,0E0,0E0,0E0,0E0,0E0],"parents":[2147483647,0,0,1,1,2,2,3,3,4,4,5,5,6,6,7,7,8,8,9,9,11,11,12,12,13,13,14,14],"right_children":[2,4,6,8,10,12,14,16,18,20,-1,22,24,26,28,-1,-1,-1,-1,-1,-1,-1,-1,-1,-1,-1,-1,-1,-1],"split_conditions":[1.2448991E-1,-4.79117E-1,7.1277344E-1,-1.4504844E0,1.2182498E-1,-2.0369072E-2,1.5089216E0,-5.1504654E-1,9.6898586E-1,2.988485E-2,-1.0144618E-1,-5.1504654E-1,6.5947485E-1,-5.1504654E-1,1.638837E0,-2.0731705E-1,-1.3572042E-1,-7.562114E-2,-1.2261062E-1,-1.5287818E-2,7.443416E-2,3.828212E-2,-8.294598E-2,5.190556E-2,1.1777893E-1,5.8426525E-2,1.12887286E-1,1.2723112E-1,1.7554204E-1],"split_indices":[1,1,1,1,1,0,1,0,0,1,0,0,1,0,1,0,0,0,0,0,0,0,0,0,0,0,0,0,0],"split_type":[0,0,0,0,0,0,0,0,0,0,0,0,0,0,0,0,0,0,0,0,0,0,0,0,0,0,0,0,0],"sum_hessian":[8.5E2,4.52E2,3.98E2,3.22E2,1.3E2,1.31E2,2.67E2,4.7E1,2.75E2,1.23E2,7E0,8.1E1,5E1,2.19E2,4.8E1,1E1,3.7E1,1.85E2,9E1,1.14E2,9E0,6.7E1,1.4E1,4.1E1,9E0,5.8E1,1.61E2,1.6E1,3.2E1],"tree_param":{"num_deleted":"0","num_feature":"3","num_nodes":"29","size_leaf_vector":"1"}},{"base_weights":[-1.4315604E-3,-1.1939708E0,1.3525076E0,-1.6568857E0,-3.6021504E-1,9.006174E-1,2.036083E0,-2.5197196E0,-1.4674193E0,-8.1381667E-1,-9.505819E-2,3.3538565E-1,1.1776739E0,2.7990394E0,1.7962252E0,-1.6338164E-1,-7.6103516E-2,-1.0419853E-1,-3.2820612E-2,-3.109658E-2,-1.4585754E-1,1.7742561E-2,-4.8639387E-2,4.8469566E-2,-4.9219187E-2,8.6167715E-2,-4.4384002E-4,-2.3240153E-2,2.2339593E-1,-4.6378996E-2,1.3125779E-1],"categories":[],"categories_nodes":[],"categories_segments":[],"categories_sizes":[],"default_left":[0,0,0,0,0,0,0,0,0,0,0,0,0,0,0,0,0,0,0,0,0,0,0,0,0,0,0,0,0,0,0],"id":38,"left_children":[1,3,5,7,9,11,13,15,17,19,21,23,25,27,29,-1,-1,-1,-1,-1,-1,-1,-1,-1,-1,-1,-1,-1,-1,-1,-1],"loss_changes":[1.3756614E3,1.7424207E2,1.21417786E2,4.3874634E1,1.952756E1,3.7502502E1,2.3886475E1,9.520752E0,5.8768738E1,2.741594E1,2.932151E1,4.4888832E1,4.962915E1,1.0745969E2,1.2537985E2,0E0,0E0,0E0,0E0,0E0,0E0,0E0,0E0,0E0,0E0,0E0,0E0,0E0,0E0,0E0,0E0],"parents":[2147483647,0,0,1,1,2,2,3,3,4,4,5,5,6,6,7,7,8,8,9,9,10,10,11,11,12,12,13,13,14,14],"right_children":[2,4,6,8,10,12,14,16,18,20,22,24,26,28,30,-1,-1,-1,-1,-1,-1,-1,-1,-1,-1,-1,-1,-1,-1,-1,-1],"split_conditions":[1.2448991E-1,-6.3035184E-1,1.100521E0,-5.1504654E-1,-3.6452496E-1,4.30957E-1,1.2617493E0,-7.88249E-1,-8.4554505E-1,-4.124937E-1,-2.7411168E-2,3.6166877E-1,9.91925E-1,-1.009724E0,1.3057207E0,-1.6338164E-1,-7.6103516E-2,-1.0419853E-1,-3.2820612E-2,-3.109658E-2,-1.4585754E-1,1.7742561E-2,-4.8639387E-2,4.8469566E-2,-4.9219187E-2,8.6167715E-2,-4.4384002E-4,-2.3240153E-2,2.2339593E-1,-4.6378996E-2,1.3125779E-1],"split_indices":[1,1,1,0,1,1,1,1,1,1,1,1,1,0,1,0,0,0,0,0,0,0,0,0,0,0,0,0,0,0,0],"split_type":[0,0,0,0,0,0,0,0,0,0,0,0,0,0,0,0,0,0,0,0,0,0,0,0,0,0,0,0,0,0,0],"sum_hessian":[8.5E2,4.52E2,3.98E2,2.9E2,1.62E2,2.41E2,1.57E2,5E1,2.4E2,5.9E1,1.03E2,8E1,1.61E2,3.5E1,1.22E2,4.2E1,8E0,1.85E2,5.5E1,5.1E1,8E0,6.7E1,3.6E1,5.7E1,2.3E1,1.32E2,2.9E1,8E0,2.7E1,1.6E1,1.06E2],"tree_param":{"num_deleted":"0","num_feature":"3","num_nodes":"31","size_leaf_vector":"1"}},{"base_weights":[-1.5970649E-3,-1.3200231E0,1.0853314E0,-1.8194382E0,-9.33163E-1,3.3602333E-1,1.6404668E0,-1.0499867E0,-2.1392894E0,2.4338994E-2,-1.0679384E0,1.8877111E-1,1.2338308E0,1.4954004E0,1.5769203E-1,-1.20908186E-1,5.9931014E-2,-7.579563E-2,-2.1383941E-1,-4.3516982E-2,2.5055755E-2,-2.8331664E-1,-5.1745817E-2,4.3635666E-2,-1.4438168E-2,5.2904047E-2,1.06765896E-1,1.4914526E-1,8.165689E-2],"categories":[],"categories_nodes":[],"categories_segments":[],"categories_sizes":[],"default_left":[0,0,0,0,0,0,0,0,0,0,0,0,0,0,0,0,0,0,0,0,0,0,0,0,0,0,0,0,0],"id":39,"left_children":[1,3,5,7,9,11,13,15,17,19,21,23,25,27,-1,-1,-1,-1,-1,-1,-1,-1,-1,-1,-1,-1,-1,-1,-1],"loss_changes":[1.2209453E3,7.268561E1,1.9370557E2,3.8854126E1,2.828746E1,2.6207916E1,3.4470642E1,1.0286197E2,1.4152307E2,8.557109E0,1.4010585E2,4.0178062E1,3.8099327E0,2.8041687E1,0E0,0E0,0E0,0E0,0E0,0E0,0E0,0E0,0E0,0E0,0E0,0E0,0E0,0E0,0E0],"parents":[2147483647,0,0,1,1,2,2,3,3,4,4,5,5,6,6,7,7,8,8,9,9,10,10,11,11,12,12,13,13],"right_children":[2,4,6,8,10,12,14,16,18,20,22,24,26,28,-1,-1,-1,-1,-1,-1,-1,-1,-1,-1,-1,-1,-1,-1,-1],"split_conditions":[-2.1195765E-1,-1.0067734E0,7.1277344E-1,-2.0369072E-2,-9.0150857E-1,9.6898586E-1,1.638837E0,-1.311908E0,-1.2073095E0,-9.2549294E-1,-8.4554505E-1,-5.1504654E-1,6.5947485E-1,8.473525E-1,1.5769203E-1,-1.20908186E-1,5.9931014E-2,-7.579563E-2,-2.1383941E-1,-4.3516982E-2,2.5055755E-2,-2.8331664E-1,-5.1745817E-2,4.3635666E-2,-1.4438168E-2,5.2904047E-2,1.06765896E-1,1.4914526E-1,8.165689E-2],"split_indices":[1,1,1,0,1,0,1,1,1,1,1,0,1,1,0,0,0,0,0,0,0,0,0,0,0,0,0,0,0],"split_type":[0,0,0,0,0,0,0,0,0,0,0,0,0,0,0,0,0,0,0,0,0,0,0,0,0,0,0,0,0],"sum_hessian":[8.5E2,3.84E2,4.66E2,1.66E2,2.18E2,1.99E2,2.67E2,5E1,1.16E2,2.7E1,1.91E2,1.72E2,2.7E1,2.35E2,3.2E1,3.4E1,1.6E1,7.3E1,4.3E1,9E0,1.8E1,9E0,1.82E2,7.6E1,9.6E1,1.8E1,9E0,2.6E1,2.09E2],"tree_param":{"num_deleted":"0","num_feature":"3","num_nodes":"29","size_leaf_vector":"1"}},{"base_weights":[-1.6502477E-3,-1.2426504E0,1.0214477E0,-1.7123715E0,-8.78787E-1,3.168064E-1,1.5434879E0,-9.8818284E-1,-2.013408E0,-1.3967868E0,-6.260569E-1,1.7761359E-1,1.1655047E0,1.3698354E0,2.2916524E0,-1.1386095E-1,5.6546684E-2,-7.130935E-2,-2.0130071E-1,-1.4374408E-1,-4.810795E-2,-1.1012857E-2,-7.568532E-2,4.1051492E-2,-1.3580781E-2,4.9896974E-2,1.0100054E-1,9.368987E-2,2.9698808E-2,1.1450651E-1,1.5499179E-1],"categories":[],"categories_nodes":[],"categories_segments":[],"categories_sizes":[],"default_left":[0,0,0,0,0,0,0,0,0,0,0,0,0,0,0,0,0,0,0,0,0,0,0,0,0,0,0,0,0,0,0],"id":40,"left_children":[1,3,5,7,9,11,13,15,17,19,21,23,25,27,29,-1,-1,-1,-1,-1,-1,-1,-1,-1,-1,-1,-1,-1,-1,-1,-1],"loss_changes":[1.0817538E3,6.429724E1,1.7129742E2,3.441754E1,2.779573E1,2.3419533E1,3.1679565E1,9.133963E1,1.2549817E2,4.0278793E1,4.1660557E1,3.5557102E1,3.4413033E0,3.6115997E1,5.4455566E-1,0E0,0E0,0E0,0E0,0E0,0E0,0E0,0E0,0E0,0E0,0E0,0E0,0E0,0E0,0E0,0E0],"parents":[2147483647,0,0,1,1,2,2,3,3,4,4,5,5,6,6,7,7,8,8,9,9,10,10,11,11,12,12,13,13,14,14],"right_children":[2,4,6,8,10,12,14,16,18,20,22,24,26,28,30,-1,-1,-1,-1,-1,-1,-1,-1,-1,-1,-1,-1,-1,-1,-1,-1],"split_conditions":[-2.1195765E-1,-1.0067734E0,7.1277344E-1,-2.0369072E-2,-5.1504654E-1,9.6898586E-1,1.5089216E0,-1.311908E0,-1.2073095E0,-7.88249E-1,9.6898586E-1,-5.1504654E-1,6.5947485E-1,1.37834E0,1.661489E0,-1.1386095E-1,5.6546684E-2,-7.130935E-2,-2.0130071E-1,-1.4374408E-1,-4.810795E-2,-1.1012857E-2,-7.568532E-2,4.1051492E-2,-1.3580781E-2,4.9896974E-2,1.0100054E-1,9.368987E-2,2.9698808E-2,1.1450651E-1,1.5499179E-1],"split_indices":[1,1,1,0,0,0,1,1,1,1,0,0,1,1,1,0,0,0,0,0,0,0,0,0,0,0,0,0,0,0,0],"split_type":[0,0,0,0,0,0,0,0,0,0,0,0,0,0,0,0,0,0,0,0,0,0,0,0,0,0,0,0,0,0,0],"sum_hessian":[8.5E2,3.84E2,4.66E2,1.66E2,2.18E2,1.99E2,2.67E2,5E1,1.16E2,7E1,1.48E2,1.72E2,2.7E1,2.19E2,4.8E1,3.4E1,1.6E1,7.3E1,4.3E1,2.5E1,4.5E1,8.8E1,6E1,7.6E1,9.6E1,1.8E1,9E0,1.79E2,4E1,2.4E1,2.4E1],"tree_param":{"num_deleted":"0","num_feature":"3","num_nodes":"31","size_leaf_vector":"1"}},{"base_weights":[-1.594557E-3,-1.1696718E0,9.613847E-1,-1.4934192E0,-6.9000405E-1,2.9869023E-1,1.4523455E0,-1.4600055E-1,-1.3170564E0,1.06402375E-1,-8.6964446E-1,1.6711597E-1,1.1009637E0,1.1697305E0,1.8666565E0,-8.7140195E-2,7.985179E-2,-1.06137946E-1,-3.4368735E-2,3.862048E-2,-1.2774362E-2,4.7060765E-2,9.554645E-2,8.412351E-2,-5.3661857E-2,2.3621973E-1,8.422202E-2],"categories":[],"categories_nodes":[],"categories_segments":[],"categories_sizes":[],"default_left":[0,0,0,0,0,0,0,0,0,0,0,0,0,0,0,0,0,0,0,0,0,0,0,0,0,0,0],"id":41,"left_children":[1,3,5,7,9,11,13,-1,15,-1,17,19,21,23,25,-1,-1,-1,-1,-1,-1,-1,-1,-1,-1,-1,-1],"loss_changes":[9.583583E2,5.8756653E1,1.51508E2,3.475592E1,7.101817E1,2.0927721E1,2.9196777E1,0E0,7.178406E1,0E0,3.8228012E1,3.1467827E1,3.1080627E0,7.894055E1,9.703061E1,0E0,0E0,0E0,0E0,0E0,0E0,0E0,0E0,0E0,0E0,0E0,0E0],"parents":[2147483647,0,0,1,1,2,2,3,3,4,4,5,5,6,6,8,8,10,10,11,11,12,12,13,13,14,14],"right_children":[2,4,6,8,10,12,14,-1,16,-1,18,20,22,24,26,-1,-1,-1,-1,-1,-1,-1,-1,-1,-1,-1,-1],"split_conditions":[-2.1195765E-1,-8.122334E-1,7.1277344E-1,-5.1504654E-1,-7.9757625E-1,9.6898586E-1,1.3057207E0,-1.4600055E-1,-8.4554505E-1,1.06402375E-1,-7.2429067E-1,-5.1504654E-1,6.5947485E-1,1.2617493E0,1.37834E0,-8.7140195E-2,7.985179E-2,-1.06137946E-1,-3.4368735E-2,3.862048E-2,-1.2774362E-2,4.7060765E-2,9.554645E-2,8.412351E-2,-5.3661857E-2,2.3621973E-1,8.422202E-2],"split_indices":[1,1,1,0,1,0,1,0,1,0,1,0,1,1,1,0,0,0,0,0,0,0,0,0,0,0,0],"split_type":[0,0,0,0,0,0,0,0,0,0,0,0,0,0,0,0,0,0,0,0,0,0,0,0,0,0,0],"sum_hessian":[8.5E2,3.84E2,4.66E2,2.28E2,1.56E2,1.99E2,2.67E2,3.4E1,1.94E2,1E1,1.46E2,1.72E2,2.7E1,1.61E2,1.06E2,1.85E2,9E0,3.5E1,1.11E2,7.6E1,9.6E1,1.8E1,9E0,1.45E2,1.6E1,1.8E1,8.8E1],"tree_param":{"num_deleted":"0","num_feature":"3","num_nodes":"27","size_leaf_vector":"1"}},{"base_weights":[-1.1081102E-3,-1.1972201E0,8.3283675E-1,-2.0605345E0,-1.0565063E0,2.2067203E-1,1.3665154E0,-1.6632785E-1,-1.08019285E-1,-8.5585815E-1,-1.4108628E0,-2.6178299E-2,6.7305064E-1,1.2020258E0,2.0771518E0,-8.1425816E-2,-3.7805423E-2,5.1493146E-3,-1.03880644E-1,-2.5665998E-2,3.833826E-2,9.456289E-2,3.3343013E-2,8.290274E-2,2.3030419E-2,1.1244694E-1,1.6089484E-1],"categories":[],"categories_nodes":[],"categories_segments":[],"categories_sizes":[],"default_left":[0,0,0,0,0,0,0,0,0,0,0,0,0,0,0,0,0,0,0,0,0,0,0,0,0,0,0],"id":42,"left_children":[1,3,5,7,9,11,13,-1,-1,15,17,19,21,23,25,-1,-1,-1,-1,-1,-1,-1,-1,-1,-1,-1,-1],"loss_changes":[8.498623E2,4.0341125E1,1.6370145E2,3.8972626E0,2.033609E1,2.6260025E1,2.8830353E1,0E0,0E0,2.1324951E1,5.1951813E1,4.114211E1,7.9181824E0,3.1813385E1,9.8773193E-1,0E0,0E0,0E0,0E0,0E0,0E0,0E0,0E0,0E0,0E0,0E0,0E0],"parents":[2147483647,0,0,1,1,2,2,3,3,4,4,5,5,6,6,9,9,10,10,11,11,12,12,13,13,14,14],"right_children":[2,4,6,8,10,12,14,-1,-1,16,18,20,22,24,26,-1,-1,-1,-1,-1,-1,-1,-1,-1,-1,-1,-1],"split_conditions":[-3.6452496E-1,-1.4504844E0,7.1277344E-1,-5.1504654E-1,9.6898586E-1,4.743084E-1,1.5089216E0,-1.6632785E-1,-1.08019285E-1,-5.1504654E-1,-1.2073095E0,3.4967658E-1,-3.3654317E-1,1.37834E0,1.7181188E0,-8.1425816E-2,-3.7805423E-2,5.1493146E-3,-1.03880644E-1,-2.5665998E-2,3.833826E-2,9.456289E-2,3.3343013E-2,8.290274E-2,2.3030419E-2,1.1244694E-1,1.6089484E-1],"split_indices":[1,1,1,0,0,0,1,0,0,0,1,1,1,1,1,0,0,0,0,0,0,0,0,0,0,0,0],"split_type":[0,0,0,0,0,0,0,0,0,0,0,0,0,0,0,0,0,0,0,0,0,0,0,0,0,0,0],"sum_hessian":[8.5E2,3.49E2,5.01E2,4.7E1,3.02E2,2.34E2,2.67E2,1E1,3.7E1,1.95E2,1.07E2,1.52E2,8.2E1,2.19E2,4.8E1,5.9E1,1.36E2,1.9E1,8.8E1,9.5E1,5.7E1,8E0,7.4E1,1.79E2,4E1,3.9E1,9E0],"tree_param":{"num_deleted":"0","num_feature":"3","num_nodes":"27","size_leaf_vector":"1"}},{"base_weights":[-1.008984E-3,-8.833148E-1,1.0007092E0,-1.1890266E0,-1.2279401E-1,6.289103E-1,1.5638397E0,-1.9426184E0,-1.0536591E0,1.307862E-1,-7.7055955E-1,2.8560132E-1,1.0451901E0,2.3037975E0,1.3345525E0,-1.5725546E-1,-1.017087E-1,-5.0602995E-2,-8.831249E-2,-7.7439197E-3,7.983829E-2,-8.364736E-2,6.314838E-2,6.5865315E-2,-2.3264186E-2,9.3047634E-2,-2.0275582E-2,-4.0260416E-2,1.9066237E-1,-5.531304E-2,1.0083476E-1],"categories":[],"categories_nodes":[],"categories_segments":[],"categories_sizes":[],"default_left":[0,0,0,0,0,0,0,0,0,0,0,0,0,0,0,0,0,0,0,0,0,0,0,0,0,0,0,0,0,0,0],"id":43,"left_children":[1,3,5,7,9,11,13,15,17,19,21,23,25,27,29,-1,-1,-1,-1,-1,-1,-1,-1,-1,-1,-1,-1,-1,-1,-1,-1],"loss_changes":[7.5301624E2,1.05176575E2,8.255563E1,3.0903015E1,2.1618908E1,3.428634E1,2.3732178E1,3.6145477E0,2.3030273E1,2.9791162E1,4.352798E1,7.370407E1,7.6748726E1,9.572171E1,9.758617E1,0E0,0E0,0E0,0E0,0E0,0E0,0E0,0E0,0E0,0E0,0E0,0E0,0E0,0E0,0E0,0E0],"parents":[2147483647,0,0,1,1,2,2,3,3,4,4,5,5,6,6,7,7,8,8,9,9,10,10,11,11,12,12,13,13,14,14],"right_children":[2,4,6,8,10,12,14,16,18,20,22,24,26,28,30,-1,-1,-1,-1,-1,-1,-1,-1,-1,-1,-1,-1,-1,-1,-1,-1],"split_conditions":[1.2448991E-1,-4.79117E-1,1.100521E0,-1.4504844E0,-2.7411168E-2,-2.0369072E-2,1.2617493E0,-5.1504654E-1,9.6898586E-1,-1.3600712E-1,9.6898586E-1,-1.009724E0,9.91925E-1,-1.009724E0,1.3057207E0,-1.5725546E-1,-1.017087E-1,-5.0602995E-2,-8.831249E-2,-7.7439197E-3,7.983829E-2,-8.364736E-2,6.314838E-2,6.5865315E-2,-2.3264186E-2,9.3047634E-2,-2.0275582E-2,-4.0260416E-2,1.9066237E-1,-5.531304E-2,1.0083476E-1],"split_indices":[1,1,1,1,1,0,1,0,0,1,0,0,1,0,1,0,0,0,0,0,0,0,0,0,0,0,0,0,0,0,0],"split_type":[0,0,0,0,0,0,0,0,0,0,0,0,0,0,0,0,0,0,0,0,0,0,0,0,0,0,0,0,0,0,0],"sum_hessian":[8.5E2,4.52E2,3.98E2,3.22E2,1.3E2,2.41E2,1.57E2,4.7E1,2.75E2,9.4E1,3.6E1,1.33E2,1.08E2,3.5E1,1.22E2,1E1,3.7E1,1.85E2,9E1,7.8E1,1.6E1,2.7E1,9E0,6E1,7.3E1,7.9E1,2.9E1,8E0,2.7E1,1.6E1,1.06E2],"tree_param":{"num_deleted":"0","num_feature":"3","num_nodes":"31","size_leaf_vector":"1"}},{"base_weights":[-9.891362E-4,-7.8744316E-1,9.9938303E-1,-1.1189165E0,-9.161526E-2,6.528034E-1,1.4712499E0,-1.8314567E0,-9.9094236E-1,-3.9575133E-1,3.355847E-1,8.0349714E-1,-3.1832707E-1,7.9879934E-1,1.6849202E0,-1.4867789E-1,-9.576679E-2,-4.7583085E-2,-8.307199E-2,1.6381849E-3,-6.257057E-2,-3.0857766E-2,3.8837917E-2,3.388193E-2,1.6758649E-1,-4.0890176E-2,2.8570494E-2,-2.8021703E-2,9.4618626E-2,1.7963119E-1,7.60941E-2],"categories":[],"categories_nodes":[],"categories_segments":[],"categories_sizes":[],"default_left":[0,0,0,0,0,0,0,0,0,0,0,0,0,0,0,0,0,0,0,0,0,0,0,0,0,0,0,0,0,0,0],"id":44,"left_children":[1,3,5,7,9,11,13,15,17,19,21,23,25,27,29,-1,-1,-1,-1,-1,-1,-1,-1,-1,-1,-1,-1,-1,-1,-1,-1],"loss_changes":[6.7030835E2,1.0991678E2,6.036685E1,2.7638428E1,2.027148E1,3.21586E1,2.1355957E1,3.3481445E0,2.0399078E1,2.494017E1,1.7552685E1,8.821963E1,8.980833E0,4.0138046E1,6.110724E1,0E0,0E0,0E0,0E0,0E0,0E0,0E0,0E0,0E0,0E0,0E0,0E0,0E0,0E0,0E0,0E0],"parents":[2147483647,0,0,1,1,2,2,3,3,4,4,5,5,6,6,7,7,8,8,9,9,10,10,11,11,12,12,13,13,14,14],"right_children":[2,4,6,8,10,12,14,16,18,20,22,24,26,28,30,-1,-1,-1,-1,-1,-1,-1,-1,-1,-1,-1,-1,-1,-1,-1,-1],"split_conditions":[1.7245866E-1,-4.79117E-1,1.100521E0,-1.4504844E0,4.743084E-1,9.91925E-1,-5.1504654E-1,-5.1504654E-1,9.6898586E-1,-2.7411168E-2,-3.6452496E-1,9.366277E-1,1.0898613E0,1.3876673E0,1.2617493E0,-1.4867789E-1,-9.576679E-2,-4.7583085E-2,-8.307199E-2,1.6381849E-3,-6.257057E-2,-3.0857766E-2,3.8837917E-2,3.388193E-2,1.6758649E-1,-4.0890176E-2,2.8570494E-2,-2.8021703E-2,9.4618626E-2,1.7963119E-1,7.60941E-2],"split_indices":[1,1,1,1,0,1,0,0,0,1,1,1,1,1,1,0,0,0,0,0,0,0,0,0,0,0,0,0,0,0,0],"split_type":[0,0,0,0,0,0,0,0,0,0,0,0,0,0,0,0,0,0,0,0,0,0,0,0,0,0,0,0,0,0,0],"sum_hessian":[8.5E2,4.76E2,3.74E2,3.22E2,1.54E2,2.17E2,1.57E2,4.7E1,2.75E2,9E1,6.4E1,1.88E2,2.9E1,3.9E1,1.18E2,1E1,3.7E1,1.85E2,9E1,5.5E1,3.5E1,1.7E1,4.7E1,1.69E2,1.9E1,2E1,9E0,1.5E1,2.4E1,2.7E1,9.1E1],"tree_param":{"num_deleted":"0","num_feature":"3","num_nodes":"31","size_leaf_vector":"1"}},{"base_weights":[-8.319346E-4,-7.410938E-1,9.4078344E-1,-1.0529429E0,-8.645953E-2,6.1450255E-1,1.3850142E0,-1.7266617E0,-9.3195933E-1,-3.726752E-1,3.1557256E-1,7.56353E-1,-2.9963887E-1,7.52536E-1,1.585973E0,-1.405682E-1,-9.017198E-2,-4.4743475E-2,-7.814241E-2,1.5417113E-3,-5.8920626E-2,-2.9109199E-2,3.6556218E-2,3.1860955E-2,1.5803401E-1,-3.8553618E-2,2.7027601E-2,-2.6445422E-2,8.9168526E-2,1.6923828E-1,7.1577996E-2],"categories":[],"categories_nodes":[],"categories_segments":[],"categories_sizes":[],"default_left":[0,0,0,0,0,0,0,0,0,0,0,0,0,0,0,0,0,0,0,0,0,0,0,0,0,0,0,0,0,0,0],"id":45,"left_children":[1,3,5,7,9,11,13,15,17,19,21,23,25,27,29,-1,-1,-1,-1,-1,-1,-1,-1,-1,-1,-1,-1,-1,-1,-1,-1],"loss_changes":[5.938799E2,9.728711E1,5.350293E1,2.471817E1,1.7953129E1,2.8495003E1,1.888861E1,3.0977936E0,1.8068375E1,2.2114672E1,1.558173E1,7.856365E1,8.006198E0,3.567131E1,5.4377594E1,0E0,0E0,0E0,0E0,0E0,0E0,0E0,0E0,0E0,0E0,0E0,0E0,0E0,0E0,0E0,0E0],"parents":[2147483647,0,0,1,1,2,2,3,3,4,4,5,5,6,6,7,7,8,8,9,9,10,10,11,11,12,12,13,13,14,14],"right_children":[2,4,6,8,10,12,14,16,18,20,22,24,26,28,30,-1,-1,-1,-1,-1,-1,-1,-1,-1,-1,-1,-1,-1,-1,-1,-1],"split_conditions":[1.7245866E-1,-4.79117E-1,1.100521E0,-1.4504844E0,4.743084E-1,9.91925E-1,-5.1504654E-1,-5.1504654E-1,9.6898586E-1,-2.7411168E-2,-3.6452496E-1,9.366277E-1,1.0898613E0,1.3876673E0,1.2617493E0,-1.405682E-1,-9.017198E-2,-4.4743475E-2,-7.814241E-2,1.5417113E-3,-5.8920626E-2,-2.9109199E-2,3.6556218E-2,3.1860955E-2,1.5803401E-1,-3.8553618E-2,2.7027601E-2,-2.6445422E-2,8.9168526E-2,1.6923828E-1,7.1577996E-2],"split_indices":[1,1,1,1,0,1,0,0,0,1,1,1,1,1,1,0,0,0,0,0,0,0,0,0,0,0,0,0,0,0,0],"split_type":[0,0,0,0,0,0,0,0,0,0,0,0,0,0,0,0,0,0,0,0,0,0,0,0,0,0,0,0,0,0,0],"sum_hessian":[8.5E2,4.76E2,3.74E2,3.22E2,1.54E2,2.17E2,1.57E2,4.7E1,2.75E2,9E1,6.4E1,1.88E2,2.9E1,3.9E1,1.18E2,1E1,3.7E1,1.85E2,9E1,5.5E1,3.5E1,1.7E1,4.7E1,1.69E2,1.9E1,2E1,9E0,1.5E1,2.4E1,2.7E1,9.1E1],"tree_param":{"num_deleted":"0","num_feature":"3","num_nodes":"31","size_leaf_vector":"1"}},{"base_weights":[-6.900467E-4,-8.678432E-1,7.1420217E-1,-1.1399771E0,-4.653815E-1,3.294375E-1,1.200096E0,-1.17754556E-1,-9.86485E-1,1.1045691E-1,-6.3479817E-1,9.928609E-1,1.2746587E-1,1.49026E-1,1.0563874E0,-6.663908E-2,8.529949E-2,-8.1051834E-2,-2.393798E-2,3.4159504E-2,1.8575767E-1,-1.3391856E-2,2.5366629E-2,-3.635047E-2,7.5545065E-2],"categories":[],"categories_nodes":[],"categories_segments":[],"categories_sizes":[],"default_left":[0,0,0,0,0,0,0,0,0,0,0,0,0,0,0,0,0,0,0,0,0,0,0,0,0],"id":46,"left_children":[1,3,5,7,9,11,13,-1,15,-1,17,19,21,-1,23,-1,-1,-1,-1,-1,-1,-1,-1,-1,-1],"loss_changes":[5.2817255E2,4.1636017E1,8.6912506E1,2.6978058E1,6.2513363E1,3.497953E1,3.537796E1,0E0,5.9886E1,0E0,2.4285099E1,5.2572422E1,2.101245E1,0E0,6.3768494E1,0E0,0E0,0E0,0E0,0E0,0E0,0E0,0E0,0E0,0E0],"parents":[2147483647,0,0,1,1,2,2,3,3,4,4,5,5,6,6,8,8,10,10,11,11,12,12,14,14],"right_children":[2,4,6,8,10,12,14,-1,16,-1,18,20,22,-1,24,-1,-1,-1,-1,-1,-1,-1,-1,-1,-1],"split_conditions":[-2.1195765E-1,-8.122334E-1,9.366277E-1,-5.1504654E-1,-7.9757625E-1,-1.009724E0,9.91925E-1,-1.17754556E-1,-8.4554505E-1,1.1045691E-1,-7.2429067E-1,9.073134E-1,-2.0369072E-2,1.49026E-1,1.0898613E0,-6.663908E-2,8.529949E-2,-8.1051834E-2,-2.393798E-2,3.4159504E-2,1.8575767E-1,-1.3391856E-2,2.5366629E-2,-3.635047E-2,7.5545065E-2],"split_indices":[1,1,1,0,1,0,1,0,1,0,1,1,0,0,1,0,0,0,0,0,0,0,0,0,0],"split_type":[0,0,0,0,0,0,0,0,0,0,0,0,0,0,0,0,0,0,0,0,0,0,0,0,0],"sum_hessian":[8.5E2,3.84E2,4.66E2,2.28E2,1.56E2,2.61E2,2.05E2,3.4E1,1.94E2,1E1,1.46E2,6E1,2.01E2,1.9E1,1.86E2,1.85E2,9E0,3.5E1,1.11E2,5.1E1,9E0,9.2E1,1.09E2,2E1,1.66E2],"tree_param":{"num_deleted":"0","num_feature":"3","num_nodes":"25","size_leaf_vector":"1"}},{"base_weights":[-2.6534672E-4,-6.5857077E-1,8.3709985E-1,-9.778125E-1,-1.5826094E-1,5.49392E-1,1.2287657E0,-1.673011E0,-8.266386E-1,-4.0147975E-1,2.3578961E-1,6.782099E-1,-2.8047398E-1,6.3529503E-1,1.417926E0,-1.0824694E-1,-5.1643882E-2,1.1051435E-2,-5.927376E-2,-9.616491E-3,-5.5982307E-2,-2.3405127E-2,3.3411235E-2,2.8707461E-2,1.4053158E-1,-3.4273308E-2,2.1488639E-2,-2.9207239E-2,7.968096E-2,1.5507571E-1,6.284643E-2],"categories":[],"categories_nodes":[],"categories_segments":[],"categories_sizes":[],"default_left":[0,0,0,0,0,0,0,0,0,0,0,0,0,0,0,0,0,0,0,0,0,0,0,0,0,0,0,0,0,0,0],"id":47,"left_children":[1,3,5,7,9,11,13,15,17,19,21,23,25,27,29,-1,-1,-1,-1,-1,-1,-1,-1,-1,-1,-1,-1,-1,-1,-1,-1],"loss_changes":[4.6965826E2,7.60316E1,4.158194E1,2.919992E1,1.8016838E1,2.3494759E1,1.6836456E1,3.8783264E0,3.9465866E1,1.4723349E1,1.4685343E1,6.1699997E1,5.774884E0,3.1738052E1,4.8728653E1,0E0,0E0,0E0,0E0,0E0,0E0,0E0,0E0,0E0,0E0,0E0,0E0,0E0,0E0,0E0,0E0],"parents":[2147483647,0,0,1,1,2,2,3,3,4,4,5,5,6,6,7,7,8,8,9,9,10,10,11,11,12,12,13,13,14,14],"right_children":[2,4,6,8,10,12,14,16,18,20,22,24,26,28,30,-1,-1,-1,-1,-1,-1,-1,-1,-1,-1,-1,-1,-1,-1,-1,-1],"split_conditions":[1.7245866E-1,-6.3035184E-1,1.100521E0,-5.1504654E-1,4.743084E-1,9.91925E-1,-5.1504654E-1,-7.88249E-1,-2.0369072E-2,-2.7411168E-2,-3.6452496E-1,9.366277E-1,1.0898613E0,1.3876673E0,1.2617493E0,-1.0824694E-1,-5.1643882E-2,1.1051435E-2,-5.927376E-2,-9.616491E-3,-5.5982307E-2,-2.3405127E-2,3.3411235E-2,2.8707461E-2,1.4053158E-1,-3.4273308E-2,2.1488639E-2,-2.9207239E-2,7.968096E-2,1.5507571E-1,6.284643E-2],"split_indices":[1,1,1,0,0,1,0,1,0,1,1,1,1,1,1,0,0,0,0,0,0,0,0,0,0,0,0,0,0,0,0],"split_type":[0,0,0,0,0,0,0,0,0,0,0,0,0,0,0,0,0,0,0,0,0,0,0,0,0,0,0,0,0,0,0],"sum_hessian":[8.5E2,4.76E2,3.74E2,2.9E2,1.86E2,2.17E2,1.57E2,5E1,2.4E2,1.15E2,7.1E1,1.88E2,2.9E1,3.9E1,1.18E2,4.2E1,8E0,3.3E1,2.07E2,8E1,3.5E1,2.4E1,4.7E1,1.69E2,1.9E1,2E1,9E0,1.5E1,2.4E1,2.7E1,9.1E1],"tree_param":{"num_deleted":"0","num_feature":"3","num_nodes":"31","size_leaf_vector":"1"}},{"base_weights":[-5.9623137E-5,-6.571687E-1,7.459817E-1,-1.0158589E0,-2.8918108E-1,5.394118E-1,1.3046639E0,-1.04581885E-1,-8.801312E-1,1.0766518E-1,-3.944389E-1,6.4047563E-1,-1.139065E0,1.9608784E-1,8.708377E-1,-5.9873525E-2,8.3894104E-2,-6.202156E-2,-1.1049809E-2,3.0282164E-2,1.5396345E-1,-4.167036E-2,-7.9104885E-2,-6.304858E-3,8.856261E-2],"categories":[],"categories_nodes":[],"categories_segments":[],"categories_sizes":[],"default_left":[0,0,0,0,0,0,0,0,0,0,0,0,0,0,0,0,0,0,0,0,0,0,0,0,0],"id":48,"left_children":[1,3,5,7,9,11,13,-1,15,-1,17,19,21,-1,23,-1,-1,-1,-1,-1,-1,-1,-1,-1,-1],"loss_changes":[4.176764E2,5.94993E1,4.5343628E1,2.1067627E1,5.0053726E1,5.0432114E1,8.829695E1,0E0,5.371428E1,0E0,2.870979E1,7.1124275E1,4.3978882E-1,0E0,5.2721306E1,0E0,0E0,0E0,0E0,0E0,0E0,0E0,0E0,0E0,0E0],"parents":[2147483647,0,0,1,1,2,2,3,3,4,4,5,5,6,6,8,8,10,10,11,11,12,12,14,14],"right_children":[2,4,6,8,10,12,14,-1,16,-1,18,20,22,-1,24,-1,-1,-1,-1,-1,-1,-1,-1,-1,-1],"split_conditions":[1.2448991E-1,-8.122334E-1,1.3057207E0,-5.1504654E-1,-7.9757625E-1,1.2617493E0,1.37834E0,-1.04581885E-1,-8.4554505E-1,1.0766518E-1,-6.3035184E-1,1.2271051E0,4.743084E-1,1.9608784E-1,1.4949307E0,-5.9873525E-2,8.3894104E-2,-6.202156E-2,-1.1049809E-2,3.0282164E-2,1.5396345E-1,-4.167036E-2,-7.9104885E-2,-6.304858E-3,8.856261E-2],"split_indices":[1,1,1,0,1,1,1,0,1,0,1,1,0,0,1,0,0,0,0,0,0,0,0,0,0],"split_type":[0,0,0,0,0,0,0,0,0,0,0,0,0,0,0,0,0,0,0,0,0,0,0,0,0],"sum_hessian":[8.5E2,4.52E2,3.98E2,2.28E2,2.24E2,2.92E2,1.06E2,3.4E1,1.94E2,1E1,2.14E2,2.76E2,1.6E1,1.8E1,8.8E1,1.85E2,9E0,5.2E1,1.62E2,2.59E2,1.7E1,6E0,1E1,3.4E1,5.4E1],"tree_param":{"num_deleted":"0","num_feature":"3","num_nodes":"25","size_leaf_vector":"1"}},{"base_weights":[2.9207984E-4,-5.523171E-1,7.8905815E-1,-8.2950675E-1,-4.9051262E-2,1.9751579E-1,7.135676E-1,-1.321925E0,-7.0510566E-1,-3.1707186E-1,3.3553296E-1,-6.0467146E-2,8.408369E-1,-1.00909434E-1,-6.474063E-2,5.2125547E-3,-5.2010246E-2,3.5022679E-3,-4.338635E-2,-2.4150778E-2,3.3762813E-2,2.6895959E-2,6.2547915E-2],"categories":[],"categories_nodes":[],"categories_segments":[],"categories_sizes":[],"default_left":[0,0,0,0,0,0,0,0,0,0,0,0,0,0,0,0,0,0,0,0,0,0,0],"id":49,"left_children":[1,3,5,7,9,-1,11,13,15,17,19,-1,21,-1,-1,-1,-1,-1,-1,-1,-1,-1,-1],"loss_changes":[3.7136914E2,6.984883E1,6.397003E1,1.8854034E1,1.8557077E1,0E0,7.5771194E1,3.7804718E0,3.337834E1,1.6201128E1,1.2634058E1,0E0,2.4782639E1,0E0,0E0,0E0,0E0,0E0,0E0,0E0,0E0,0E0,0E0],"parents":[2147483647,0,0,1,1,2,2,3,3,4,4,6,6,7,7,8,8,9,9,10,10,12,12],"right_children":[2,4,6,8,10,-1,12,14,16,18,20,-1,22,-1,-1,-1,-1,-1,-1,-1,-1,-1,-1],"split_conditions":[3.4967658E-1,-4.79117E-1,3.6166877E-1,-1.3618754E0,4.743084E-1,1.9751579E-1,4.30957E-1,-1.5803998E0,-1.2073095E0,-2.7411168E-2,-3.6452496E-1,-6.0467146E-2,-5.1504654E-1,-1.00909434E-1,-6.474063E-2,5.2125547E-3,-5.2010246E-2,3.5022679E-3,-4.338635E-2,-2.4150778E-2,3.3762813E-2,2.6895959E-2,6.2547915E-2],"split_indices":[1,1,1,1,0,0,1,1,1,1,1,0,0,0,0,0,0,0,0,0,0,0,0],"split_type":[0,0,0,0,0,0,0,0,0,0,0,0,0,0,0,0,0,0,0,0,0,0,0],"sum_hessian":[8.5E2,5E2,3.5E2,3.22E2,1.78E2,9E0,3.41E2,6.3E1,2.59E2,1.05E2,7.3E1,2.3E1,3.18E2,2.3E1,4E1,4.4E1,2.15E2,5.5E1,5E1,1.7E1,5.6E1,1.09E2,2.09E2],"tree_param":{"num_deleted":"0","num_feature":"3","num_nodes":"23","size_leaf_vector":"1"}},{"base_weights":[2.5453916E-4,-5.8325744E-1,6.627374E-1,-9.073363E-1,-2.5082493E-1,4.725452E-1,1.1773503E0,-9.446379E-2,-7.829545E-1,1.04629375E-1,-3.5171005E-1,5.696013E-1,-1.1366949E0,1.8138641E-1,7.700837E-1,-5.366823E-2,8.217231E-2,-6.556129E-2,-1.2093629E-2,2.6601063E-2,1.4169428E-1,-4.2744074E-2,-7.8201845E-2,-2.3138404E-2,7.365384E-2],"categories":[],"categories_nodes":[],"categories_segments":[],"categories_sizes":[],"default_left":[0,0,0,0,0,0,0,0,0,0,0,0,0,0,0,0,0,0,0,0,0,0,0,0,0],"id":50,"left_children":[1,3,5,7,9,11,13,-1,15,-1,17,19,21,-1,23,-1,-1,-1,-1,-1,-1,-1,-1,-1,-1],"loss_changes":[3.293548E2,4.857608E1,3.849591E1,1.7767487E1,4.5890137E1,4.6410133E1,7.810545E1,0E0,4.803231E1,0E0,2.3700132E1,6.162056E1,2.7366447E-1,0E0,4.7529552E1,0E0,0E0,0E0,0E0,0E0,0E0,0E0,0E0,0E0,0E0],"parents":[2147483647,0,0,1,1,2,2,3,3,4,4,5,5,6,6,8,8,10,10,11,11,12,12,14,14],"right_children":[2,4,6,8,10,12,14,-1,16,-1,18,20,22,-1,24,-1,-1,-1,-1,-1,-1,-1,-1,-1,-1],"split_conditions":[1.2448991E-1,-8.122334E-1,1.3057207E0,-5.1504654E-1,-7.9757625E-1,1.2617493E0,1.37834E0,-9.446379E-2,-8.4554505E-1,1.04629375E-1,-7.2429067E-1,1.2271051E0,4.743084E-1,1.8138641E-1,1.484271E0,-5.366823E-2,8.217231E-2,-6.556129E-2,-1.2093629E-2,2.6601063E-2,1.4169428E-1,-4.2744074E-2,-7.8201845E-2,-2.3138404E-2,7.365384E-2],"split_indices":[1,1,1,0,1,1,1,0,1,0,1,1,0,0,1,0,0,0,0,0,0,0,0,0,0],"split_type":[0,0,0,0,0,0,0,0,0,0,0,0,0,0,0,0,0,0,0,0,0,0,0,0,0],"sum_hessian":[8.5E2,4.52E2,3.98E2,2.28E2,2.24E2,2.92E2,1.06E2,3.4E1,1.94E2,1E1,2.14E2,2.76E2,1.6E1,1.8E1,8.8E1,1.85E2,9E0,3.5E1,1.79E2,2.59E2,1.7E1,6E0,1E1,2.5E1,6.3E1],"tree_param":{"num_deleted":"0","num_feature":"3","num_nodes":"25","size_leaf_vector":"1"}},{"base_weights":[5.221115E-4,-4.9064663E-1,7.0159054E-1,-8.5318375E-1,-1.8474315E-1,1.8541344E-1,6.29696E-1,-7.252157E-1,-1.51909E0,9.892231E-2,-2.6072484E-1,-5.8519803E-2,7.484764E-1,-5.401416E-2,5.6051727E-2,-2.3721837E-1,-3.3668544E-2,-4.276391E-2,-2.6776846E-3,3.933584E-2,9.2013665E-2],"categories":[],"categories_nodes":[],"categories_segments":[],"categories_sizes":[],"default_left":[0,0,0,0,0,0,0,0,0,0,0,0,0,0,0,0,0,0,0,0,0],"id":51,"left_children":[1,3,5,7,9,-1,11,13,15,-1,17,-1,19,-1,-1,-1,-1,-1,-1,-1,-1],"loss_changes":[2.9338004E2,5.540397E1,5.8331223E1,1.8412521E1,3.846109E1,0E0,6.593077E1,5.7184586E1,8.1739586E1,0E0,2.5657312E1,0E0,2.2255432E1,0E0,0E0,0E0,0E0,0E0,0E0,0E0,0E0],"parents":[2147483647,0,0,1,1,2,2,3,3,4,4,6,6,7,7,8,8,10,10,12,12],"right_children":[2,4,6,8,10,-1,12,14,16,-1,18,-1,20,-1,-1,-1,-1,-1,-1,-1,-1],"split_conditions":[3.4967658E-1,-8.122334E-1,3.6166877E-1,-9.0150857E-1,-7.9757625E-1,1.8541344E-1,4.30957E-1,-9.2549294E-1,-8.4554505E-1,9.892231E-2,-4.79117E-1,-5.8519803E-2,1.638837E0,-5.401416E-2,5.6051727E-2,-2.3721837E-1,-3.3668544E-2,-4.276391E-2,-2.6776846E-3,3.933584E-2,9.2013665E-2],"split_indices":[1,1,1,1,1,0,1,1,1,0,1,0,1,0,0,0,0,0,0,0,0],"split_type":[0,0,0,0,0,0,0,0,0,0,0,0,0,0,0,0,0,0,0,0,0],"sum_hessian":[8.5E2,5E2,3.5E2,2.28E2,2.72E2,9E0,3.41E2,1.93E2,3.5E1,1E1,2.62E2,2.3E1,3.18E2,1.75E2,1.8E1,9E0,2.6E1,8.4E1,1.78E2,2.86E2,3.2E1],"tree_param":{"num_deleted":"0","num_feature":"3","num_nodes":"21","size_leaf_vector":"1"}},{"base_weights":[5.4088014E-4,-6.084612E-1,5.026078E-1,-9.1693836E-1,-4.0981695E-1,2.2522336E-1,8.5295784E-1,-6.623336E-1,-2.1057327E0,